
=== Classifier model (full training set) ===

J48 pruned tree
------------------

loop1 <= 4
|   loop1 <= 1
|   |   L1size_1 <= 90464256
|   |   |   F <= 128
|   |   |   |   F <= 32
|   |   |   |   |   OI2 <= 6.628821: x1 (101.0)
|   |   |   |   |   OI2 > 6.628821
|   |   |   |   |   |   L2size_2 <= 1364224
|   |   |   |   |   |   |   L1size_1 <= 2521344
|   |   |   |   |   |   |   |   L2size_1 <= 2295264
|   |   |   |   |   |   |   |   |   loop2 <= 8
|   |   |   |   |   |   |   |   |   |   OI3 <= 24.024896: x2 (64.0/3.0)
|   |   |   |   |   |   |   |   |   |   OI3 > 24.024896
|   |   |   |   |   |   |   |   |   |   |   L1size_1 <= 1423104: x2 (61.0/11.0)
|   |   |   |   |   |   |   |   |   |   |   L1size_1 > 1423104
|   |   |   |   |   |   |   |   |   |   |   |   L1size_1 <= 2021376: x3 (13.0/7.0)
|   |   |   |   |   |   |   |   |   |   |   |   L1size_1 > 2021376: x2 (32.0/5.0)
|   |   |   |   |   |   |   |   |   loop2 > 8: x1 (5.0/1.0)
|   |   |   |   |   |   |   |   L2size_1 > 2295264
|   |   |   |   |   |   |   |   |   loop2 <= 4
|   |   |   |   |   |   |   |   |   |   L2size_1 <= 2859520
|   |   |   |   |   |   |   |   |   |   |   OI3 <= 46.14025: x3 (6.0/1.0)
|   |   |   |   |   |   |   |   |   |   |   OI3 > 46.14025
|   |   |   |   |   |   |   |   |   |   |   |   loop2 <= 1: x3 (2.0)
|   |   |   |   |   |   |   |   |   |   |   |   loop2 > 1: x4 (3.0)
|   |   |   |   |   |   |   |   |   |   L2size_1 > 2859520: x4 (3.0/1.0)
|   |   |   |   |   |   |   |   |   loop2 > 4: x3 (11.0/1.0)
|   |   |   |   |   |   |   L1size_1 > 2521344
|   |   |   |   |   |   |   |   L1size_1 <= 3631744
|   |   |   |   |   |   |   |   |   loop2 <= 8
|   |   |   |   |   |   |   |   |   |   LAMBDA = True
|   |   |   |   |   |   |   |   |   |   |   L2size_1 <= 698112
|   |   |   |   |   |   |   |   |   |   |   |   L1size_1 <= 2931712: x4 (37.0)
|   |   |   |   |   |   |   |   |   |   |   |   L1size_1 > 2931712
|   |   |   |   |   |   |   |   |   |   |   |   |   OI1 <= 17.004814: x4 (3.0)
|   |   |   |   |   |   |   |   |   |   |   |   |   OI1 > 17.004814: x2 (2.0)
|   |   |   |   |   |   |   |   |   |   |   L2size_1 > 698112
|   |   |   |   |   |   |   |   |   |   |   |   loop2 <= 1: x4 (8.0)
|   |   |   |   |   |   |   |   |   |   |   |   loop2 > 1
|   |   |   |   |   |   |   |   |   |   |   |   |   L2size_1 <= 1174528
|   |   |   |   |   |   |   |   |   |   |   |   |   |   loop2 <= 4
|   |   |   |   |   |   |   |   |   |   |   |   |   |   |   L2size_1 <= 855504: x4 (3.0)
|   |   |   |   |   |   |   |   |   |   |   |   |   |   |   L2size_1 > 855504: x3 (3.0)
|   |   |   |   |   |   |   |   |   |   |   |   |   |   loop2 > 4: x3 (4.0)
|   |   |   |   |   |   |   |   |   |   |   |   |   L2size_1 > 1174528: x4 (9.0/1.0)
|   |   |   |   |   |   |   |   |   |   LAMBDA = False
|   |   |   |   |   |   |   |   |   |   |   loop2 <= 1: x4 (8.0/1.0)
|   |   |   |   |   |   |   |   |   |   |   loop2 > 1: x3 (10.0/3.0)
|   |   |   |   |   |   |   |   |   loop2 > 8: x3 (12.0/1.0)
|   |   |   |   |   |   |   |   L1size_1 > 3631744
|   |   |   |   |   |   |   |   |   loop2 <= 17: x1 (4.0)
|   |   |   |   |   |   |   |   |   loop2 > 17: x2 (5.0)
|   |   |   |   |   |   L2size_2 > 1364224
|   |   |   |   |   |   |   L2size_2 <= 2018704
|   |   |   |   |   |   |   |   OI1 <= 58.311226
|   |   |   |   |   |   |   |   |   loop2 <= 8
|   |   |   |   |   |   |   |   |   |   L1size_1 <= 2573256: x2 (46.0/3.0)
|   |   |   |   |   |   |   |   |   |   L1size_1 > 2573256: x4 (2.0)
|   |   |   |   |   |   |   |   |   loop2 > 8: x1 (4.0)
|   |   |   |   |   |   |   |   OI1 > 58.311226
|   |   |   |   |   |   |   |   |   L1size_1 <= 3958: x2 (8.0/1.0)
|   |   |   |   |   |   |   |   |   L1size_1 > 3958
|   |   |   |   |   |   |   |   |   |   loop2 <= 1
|   |   |   |   |   |   |   |   |   |   |   OI1 <= 63.527326: x1 (2.0)
|   |   |   |   |   |   |   |   |   |   |   OI1 > 63.527326: x2 (2.0)
|   |   |   |   |   |   |   |   |   |   loop2 > 1: x1 (15.0)
|   |   |   |   |   |   |   L2size_2 > 2018704
|   |   |   |   |   |   |   |   L1size_1 <= 6304: x2 (47.0/4.0)
|   |   |   |   |   |   |   |   L1size_1 > 6304
|   |   |   |   |   |   |   |   |   L1size_1 <= 2158272
|   |   |   |   |   |   |   |   |   |   loop2 <= 1
|   |   |   |   |   |   |   |   |   |   |   L2size_2 <= 2041864: x1 (17.0/3.0)
|   |   |   |   |   |   |   |   |   |   |   L2size_2 > 2041864: x2 (7.0)
|   |   |   |   |   |   |   |   |   |   loop2 > 1: x1 (112.0/14.0)
|   |   |   |   |   |   |   |   |   L1size_1 > 2158272
|   |   |   |   |   |   |   |   |   |   L1size_1 <= 2495872: x2 (8.0/1.0)
|   |   |   |   |   |   |   |   |   |   L1size_1 > 2495872
|   |   |   |   |   |   |   |   |   |   |   loop2 <= 17
|   |   |   |   |   |   |   |   |   |   |   |   L2size_1 <= 2444260: x1 (10.0/1.0)
|   |   |   |   |   |   |   |   |   |   |   |   L2size_1 > 2444260: x2 (10.0/4.0)
|   |   |   |   |   |   |   |   |   |   |   loop2 > 17: x2 (5.0)
|   |   |   |   F > 32
|   |   |   |   |   Stride <= 1
|   |   |   |   |   |   C <= 128
|   |   |   |   |   |   |   X <= 34
|   |   |   |   |   |   |   |   L2size_2 <= 87136
|   |   |   |   |   |   |   |   |   L2size_2 <= 35680
|   |   |   |   |   |   |   |   |   |   OI3 <= 37.724751: x1 (4.0/2.0)
|   |   |   |   |   |   |   |   |   |   OI3 > 37.724751
|   |   |   |   |   |   |   |   |   |   |   L2size_2 <= 21080: x4 (9.0/3.0)
|   |   |   |   |   |   |   |   |   |   |   L2size_2 > 21080
|   |   |   |   |   |   |   |   |   |   |   |   L2size_2 <= 29120: x1 (2.0)
|   |   |   |   |   |   |   |   |   |   |   |   L2size_2 > 29120: x2 (3.0/1.0)
|   |   |   |   |   |   |   |   |   L2size_2 > 35680
|   |   |   |   |   |   |   |   |   |   loop2 <= 8
|   |   |   |   |   |   |   |   |   |   |   OI1 <= 311.409142: x8 (52.0/22.0)
|   |   |   |   |   |   |   |   |   |   |   OI1 > 311.409142: x1 (4.0/2.0)
|   |   |   |   |   |   |   |   |   |   loop2 > 8
|   |   |   |   |   |   |   |   |   |   |   L2size_1 <= 58880
|   |   |   |   |   |   |   |   |   |   |   |   L1size_1 <= 6945792
|   |   |   |   |   |   |   |   |   |   |   |   |   loop2 <= 17: x8 (5.0/2.0)
|   |   |   |   |   |   |   |   |   |   |   |   |   loop2 > 17: x3 (4.0)
|   |   |   |   |   |   |   |   |   |   |   |   L1size_1 > 6945792: x1 (14.0)
|   |   |   |   |   |   |   |   |   |   |   L2size_1 > 58880
|   |   |   |   |   |   |   |   |   |   |   |   LAMBDA = True
|   |   |   |   |   |   |   |   |   |   |   |   |   loop2 <= 17
|   |   |   |   |   |   |   |   |   |   |   |   |   |   OI2 <= 180.705882: x1 (6.0/1.0)
|   |   |   |   |   |   |   |   |   |   |   |   |   |   OI2 > 180.705882: x8 (4.0)
|   |   |   |   |   |   |   |   |   |   |   |   |   loop2 > 17
|   |   |   |   |   |   |   |   |   |   |   |   |   |   L2size_1 <= 70144: x3 (3.0/1.0)
|   |   |   |   |   |   |   |   |   |   |   |   |   |   L2size_1 > 70144: x8 (7.0)
|   |   |   |   |   |   |   |   |   |   |   |   LAMBDA = False: x8 (15.0/4.0)
|   |   |   |   |   |   |   |   L2size_2 > 87136
|   |   |   |   |   |   |   |   |   LAMBDA = True
|   |   |   |   |   |   |   |   |   |   L1size_1 <= 889728: x4 (16.0/8.0)
|   |   |   |   |   |   |   |   |   |   L1size_1 > 889728
|   |   |   |   |   |   |   |   |   |   |   loop2 <= 2: x5 (2.0)
|   |   |   |   |   |   |   |   |   |   |   loop2 > 2
|   |   |   |   |   |   |   |   |   |   |   |   loop2 <= 8: x1 (6.0/1.0)
|   |   |   |   |   |   |   |   |   |   |   |   loop2 > 8: x4 (2.0)
|   |   |   |   |   |   |   |   |   LAMBDA = False
|   |   |   |   |   |   |   |   |   |   loop2 <= 1: x2 (2.0/1.0)
|   |   |   |   |   |   |   |   |   |   loop2 > 1
|   |   |   |   |   |   |   |   |   |   |   loop2 <= 8
|   |   |   |   |   |   |   |   |   |   |   |   L2size_1 <= 161104: x1 (3.0/1.0)
|   |   |   |   |   |   |   |   |   |   |   |   L2size_1 > 161104
|   |   |   |   |   |   |   |   |   |   |   |   |   L2size_1 <= 380352: x3 (5.0/2.0)
|   |   |   |   |   |   |   |   |   |   |   |   |   L2size_1 > 380352: x5 (4.0/2.0)
|   |   |   |   |   |   |   |   |   |   |   loop2 > 8: x3 (3.0/1.0)
|   |   |   |   |   |   |   X > 34
|   |   |   |   |   |   |   |   L2size_2 <= 23274496
|   |   |   |   |   |   |   |   |   PeakPerf <= 255688704
|   |   |   |   |   |   |   |   |   |   L2size_1 <= 962752
|   |   |   |   |   |   |   |   |   |   |   L2size_2 <= 190976
|   |   |   |   |   |   |   |   |   |   |   |   L2size_1 <= 96384
|   |   |   |   |   |   |   |   |   |   |   |   |   L2size_2 <= 53324
|   |   |   |   |   |   |   |   |   |   |   |   |   |   L2size_1 <= 68512
|   |   |   |   |   |   |   |   |   |   |   |   |   |   |   OI1 <= 74.322198
|   |   |   |   |   |   |   |   |   |   |   |   |   |   |   |   OI1 <= 10.292454: x7 (3.0)
|   |   |   |   |   |   |   |   |   |   |   |   |   |   |   |   OI1 > 10.292454: x8 (27.0/3.0)
|   |   |   |   |   |   |   |   |   |   |   |   |   |   |   OI1 > 74.322198: x7 (13.0/4.0)
|   |   |   |   |   |   |   |   |   |   |   |   |   |   L2size_1 > 68512: x8 (16.0)
|   |   |   |   |   |   |   |   |   |   |   |   |   L2size_2 > 53324
|   |   |   |   |   |   |   |   |   |   |   |   |   |   OI1 <= 6.84435: x6 (2.0)
|   |   |   |   |   |   |   |   |   |   |   |   |   |   OI1 > 6.84435: x7 (25.0/6.0)
|   |   |   |   |   |   |   |   |   |   |   |   L2size_1 > 96384: x6 (25.0/6.0)
|   |   |   |   |   |   |   |   |   |   |   L2size_2 > 190976
|   |   |   |   |   |   |   |   |   |   |   |   LAMBDA = True: x8 (15.0)
|   |   |   |   |   |   |   |   |   |   |   |   LAMBDA = False
|   |   |   |   |   |   |   |   |   |   |   |   |   L2size_1 <= 683712
|   |   |   |   |   |   |   |   |   |   |   |   |   |   L2size_1 <= 343552
|   |   |   |   |   |   |   |   |   |   |   |   |   |   |   loop2 <= 34: x5 (19.0/6.0)
|   |   |   |   |   |   |   |   |   |   |   |   |   |   |   loop2 > 34: x4 (4.0/1.0)
|   |   |   |   |   |   |   |   |   |   |   |   |   |   L2size_1 > 343552
|   |   |   |   |   |   |   |   |   |   |   |   |   |   |   OI1 <= 6.850688: x2 (2.0)
|   |   |   |   |   |   |   |   |   |   |   |   |   |   |   OI1 > 6.850688: x3 (23.0/8.0)
|   |   |   |   |   |   |   |   |   |   |   |   |   L2size_1 > 683712
|   |   |   |   |   |   |   |   |   |   |   |   |   |   OI1 <= 6.850688: x1 (2.0)
|   |   |   |   |   |   |   |   |   |   |   |   |   |   OI1 > 6.850688
|   |   |   |   |   |   |   |   |   |   |   |   |   |   |   OI1 <= 58.19194
|   |   |   |   |   |   |   |   |   |   |   |   |   |   |   |   OI1 <= 10.370126: x2 (4.0)
|   |   |   |   |   |   |   |   |   |   |   |   |   |   |   |   OI1 > 10.370126: x3 (7.0)
|   |   |   |   |   |   |   |   |   |   |   |   |   |   |   OI1 > 58.19194: x2 (13.0/1.0)
|   |   |   |   |   |   |   |   |   |   L2size_1 > 962752: x8 (124.0/7.0)
|   |   |   |   |   |   |   |   |   PeakPerf > 255688704
|   |   |   |   |   |   |   |   |   |   F <= 64
|   |   |   |   |   |   |   |   |   |   |   LAMBDA = True
|   |   |   |   |   |   |   |   |   |   |   |   loop2 <= 1
|   |   |   |   |   |   |   |   |   |   |   |   |   L1size_1 <= 27504640: x7 (9.0/1.0)
|   |   |   |   |   |   |   |   |   |   |   |   |   L1size_1 > 27504640
|   |   |   |   |   |   |   |   |   |   |   |   |   |   OI3 <= 17.025803
|   |   |   |   |   |   |   |   |   |   |   |   |   |   |   OI3 <= 17.014943: x7 (3.0)
|   |   |   |   |   |   |   |   |   |   |   |   |   |   |   OI3 > 17.014943: x6 (3.0)
|   |   |   |   |   |   |   |   |   |   |   |   |   |   OI3 > 17.025803: x8 (7.0/1.0)
|   |   |   |   |   |   |   |   |   |   |   |   loop2 > 1: x7 (27.0/1.0)
|   |   |   |   |   |   |   |   |   |   |   LAMBDA = False
|   |   |   |   |   |   |   |   |   |   |   |   L1size_1 <= 24371200
|   |   |   |   |   |   |   |   |   |   |   |   |   OI2 <= 20.589717
|   |   |   |   |   |   |   |   |   |   |   |   |   |   OI1 <= 20.451595: x8 (28.0/1.0)
|   |   |   |   |   |   |   |   |   |   |   |   |   |   OI1 > 20.451595
|   |   |   |   |   |   |   |   |   |   |   |   |   |   |   loop2 <= 8: x7 (4.0)
|   |   |   |   |   |   |   |   |   |   |   |   |   |   |   loop2 > 8: x8 (2.0)
|   |   |   |   |   |   |   |   |   |   |   |   |   OI2 > 20.589717: x8 (53.0)
|   |   |   |   |   |   |   |   |   |   |   |   L1size_1 > 24371200
|   |   |   |   |   |   |   |   |   |   |   |   |   L1size_1 <= 26242560: x7 (24.0/2.0)
|   |   |   |   |   |   |   |   |   |   |   |   |   L1size_1 > 26242560
|   |   |   |   |   |   |   |   |   |   |   |   |   |   L2size_1 <= 753664
|   |   |   |   |   |   |   |   |   |   |   |   |   |   |   L1size_1 <= 29976576: x7 (2.0/1.0)
|   |   |   |   |   |   |   |   |   |   |   |   |   |   |   L1size_1 > 29976576: x6 (4.0/1.0)
|   |   |   |   |   |   |   |   |   |   |   |   |   |   L2size_1 > 753664
|   |   |   |   |   |   |   |   |   |   |   |   |   |   |   loop2 <= 1
|   |   |   |   |   |   |   |   |   |   |   |   |   |   |   |   OI1 <= 20.088237: x7 (2.0)
|   |   |   |   |   |   |   |   |   |   |   |   |   |   |   |   OI1 > 20.088237: x8 (12.0)
|   |   |   |   |   |   |   |   |   |   |   |   |   |   |   loop2 > 1
|   |   |   |   |   |   |   |   |   |   |   |   |   |   |   |   OI1 <= 9.07642: x8 (12.0)
|   |   |   |   |   |   |   |   |   |   |   |   |   |   |   |   OI1 > 9.07642: x7 (10.0/3.0)
|   |   |   |   |   |   |   |   |   |   F > 64
|   |   |   |   |   |   |   |   |   |   |   OI1 <= 295.442591: x8 (702.0/118.0)
|   |   |   |   |   |   |   |   |   |   |   OI1 > 295.442591
|   |   |   |   |   |   |   |   |   |   |   |   loop2 <= 4: x9 (9.0/1.0)
|   |   |   |   |   |   |   |   |   |   |   |   loop2 > 4: x8 (18.0/1.0)
|   |   |   |   |   |   |   |   L2size_2 > 23274496
|   |   |   |   |   |   |   |   |   F <= 64
|   |   |   |   |   |   |   |   |   |   loop2 <= 1
|   |   |   |   |   |   |   |   |   |   |   L2size_2 <= 24137728
|   |   |   |   |   |   |   |   |   |   |   |   OI1 <= 18.270161: x7 (3.0)
|   |   |   |   |   |   |   |   |   |   |   |   OI1 > 18.270161: x6 (15.0)
|   |   |   |   |   |   |   |   |   |   |   L2size_2 > 24137728
|   |   |   |   |   |   |   |   |   |   |   |   L2size_1 <= 24289280: x8 (5.0/2.0)
|   |   |   |   |   |   |   |   |   |   |   |   L2size_1 > 24289280: x7 (8.0/1.0)
|   |   |   |   |   |   |   |   |   |   loop2 > 1
|   |   |   |   |   |   |   |   |   |   |   L2size_1 <= 24649728
|   |   |   |   |   |   |   |   |   |   |   |   OI2 <= 57.080794: x7 (46.0)
|   |   |   |   |   |   |   |   |   |   |   |   OI2 > 57.080794
|   |   |   |   |   |   |   |   |   |   |   |   |   loop2 <= 4: x7 (3.0)
|   |   |   |   |   |   |   |   |   |   |   |   |   loop2 > 4: x6 (2.0)
|   |   |   |   |   |   |   |   |   |   |   L2size_1 > 24649728
|   |   |   |   |   |   |   |   |   |   |   |   loop2 <= 8: x7 (3.0/1.0)
|   |   |   |   |   |   |   |   |   |   |   |   loop2 > 8: x6 (2.0)
|   |   |   |   |   |   |   |   |   F > 64
|   |   |   |   |   |   |   |   |   |   LAMBDA = True
|   |   |   |   |   |   |   |   |   |   |   loop2 <= 8: x7 (82.0/35.0)
|   |   |   |   |   |   |   |   |   |   |   loop2 > 8
|   |   |   |   |   |   |   |   |   |   |   |   L1size_1 <= 81765836: x8 (20.0)
|   |   |   |   |   |   |   |   |   |   |   |   L1size_1 > 81765836: x7 (6.0/1.0)
|   |   |   |   |   |   |   |   |   |   LAMBDA = False: x7 (11.0)
|   |   |   |   |   |   C > 128
|   |   |   |   |   |   |   L2size_2 <= 21111296
|   |   |   |   |   |   |   |   loop2 <= 8
|   |   |   |   |   |   |   |   |   L1size_1 <= 20075776
|   |   |   |   |   |   |   |   |   |   L2size_1 <= 22137024: x6 (5.0)
|   |   |   |   |   |   |   |   |   |   L2size_1 > 22137024: x7 (5.0/1.0)
|   |   |   |   |   |   |   |   |   L1size_1 > 20075776: x7 (42.0/11.0)
|   |   |   |   |   |   |   |   loop2 > 8: x6 (7.0/1.0)
|   |   |   |   |   |   |   L2size_2 > 21111296: x6 (71.0)
|   |   |   |   |   Stride > 1
|   |   |   |   |   |   KH <= 3
|   |   |   |   |   |   |   L2size_2 <= 1265152
|   |   |   |   |   |   |   |   OI3 <= 2.599068
|   |   |   |   |   |   |   |   |   OI1 <= 1.991851
|   |   |   |   |   |   |   |   |   |   PeakPerf <= 255688704
|   |   |   |   |   |   |   |   |   |   |   OI3 <= 1.991634: x1 (2.0)
|   |   |   |   |   |   |   |   |   |   |   OI3 > 1.991634: x7 (4.0)
|   |   |   |   |   |   |   |   |   |   PeakPerf > 255688704: x7 (10.0)
|   |   |   |   |   |   |   |   |   OI1 > 1.991851
|   |   |   |   |   |   |   |   |   |   F <= 64
|   |   |   |   |   |   |   |   |   |   |   L2size_2 <= 659314: x6 (2.0)
|   |   |   |   |   |   |   |   |   |   |   L2size_2 > 659314: x1 (5.0)
|   |   |   |   |   |   |   |   |   |   F > 64
|   |   |   |   |   |   |   |   |   |   |   L2size_2 <= 151456
|   |   |   |   |   |   |   |   |   |   |   |   L2size_1 <= 73696: x1 (17.0)
|   |   |   |   |   |   |   |   |   |   |   |   L2size_1 > 73696
|   |   |   |   |   |   |   |   |   |   |   |   |   C <= 64
|   |   |   |   |   |   |   |   |   |   |   |   |   |   L2size_1 <= 561376: x7 (7.0)
|   |   |   |   |   |   |   |   |   |   |   |   |   |   L2size_1 > 561376: x1 (2.0)
|   |   |   |   |   |   |   |   |   |   |   |   |   C > 64
|   |   |   |   |   |   |   |   |   |   |   |   |   |   L2size_1 <= 134272: x1 (13.0)
|   |   |   |   |   |   |   |   |   |   |   |   |   |   L2size_1 > 134272
|   |   |   |   |   |   |   |   |   |   |   |   |   |   |   OI3 <= 1.991801: x1 (5.0/1.0)
|   |   |   |   |   |   |   |   |   |   |   |   |   |   |   OI3 > 1.991801: x7 (2.0)
|   |   |   |   |   |   |   |   |   |   |   L2size_2 > 151456: x7 (4.0)
|   |   |   |   |   |   |   |   OI3 > 2.599068
|   |   |   |   |   |   |   |   |   F <= 64
|   |   |   |   |   |   |   |   |   |   L2size_2 <= 232192
|   |   |   |   |   |   |   |   |   |   |   L2size_2 <= 131152
|   |   |   |   |   |   |   |   |   |   |   |   L2size_2 <= 93820
|   |   |   |   |   |   |   |   |   |   |   |   |   OI1 <= 11.102121
|   |   |   |   |   |   |   |   |   |   |   |   |   |   loop2 <= 17: x5 (9.0/2.0)
|   |   |   |   |   |   |   |   |   |   |   |   |   |   loop2 > 17: x7 (3.0)
|   |   |   |   |   |   |   |   |   |   |   |   |   OI1 > 11.102121: x7 (22.0/2.0)
|   |   |   |   |   |   |   |   |   |   |   |   L2size_2 > 93820
|   |   |   |   |   |   |   |   |   |   |   |   |   OI1 <= 7.515815: x5 (8.0/1.0)
|   |   |   |   |   |   |   |   |   |   |   |   |   OI1 > 7.515815
|   |   |   |   |   |   |   |   |   |   |   |   |   |   OI1 <= 13.019113
|   |   |   |   |   |   |   |   |   |   |   |   |   |   |   loop2 <= 8: x5 (4.0)
|   |   |   |   |   |   |   |   |   |   |   |   |   |   |   loop2 > 8: x6 (11.0/4.0)
|   |   |   |   |   |   |   |   |   |   |   |   |   |   OI1 > 13.019113
|   |   |   |   |   |   |   |   |   |   |   |   |   |   |   L2size_1 <= 100064: x6 (9.0/2.0)
|   |   |   |   |   |   |   |   |   |   |   |   |   |   |   L2size_1 > 100064
|   |   |   |   |   |   |   |   |   |   |   |   |   |   |   |   OI1 <= 18.476711: x7 (3.0)
|   |   |   |   |   |   |   |   |   |   |   |   |   |   |   |   OI1 > 18.476711: x6 (30.0/10.0)
|   |   |   |   |   |   |   |   |   |   |   L2size_2 > 131152
|   |   |   |   |   |   |   |   |   |   |   |   LAMBDA = True: x4 (7.0)
|   |   |   |   |   |   |   |   |   |   |   |   LAMBDA = False
|   |   |   |   |   |   |   |   |   |   |   |   |   OI1 <= 7.599194
|   |   |   |   |   |   |   |   |   |   |   |   |   |   OI1 <= 5.068679: x3 (3.0/1.0)
|   |   |   |   |   |   |   |   |   |   |   |   |   |   OI1 > 5.068679: x4 (3.0)
|   |   |   |   |   |   |   |   |   |   |   |   |   OI1 > 7.599194: x5 (19.0/6.0)
|   |   |   |   |   |   |   |   |   |   L2size_2 > 232192
|   |   |   |   |   |   |   |   |   |   |   L2size_1 <= 704512
|   |   |   |   |   |   |   |   |   |   |   |   L2size_1 <= 461312
|   |   |   |   |   |   |   |   |   |   |   |   |   OI1 <= 5.044765
|   |   |   |   |   |   |   |   |   |   |   |   |   |   loop2 <= 17: x3 (2.0)
|   |   |   |   |   |   |   |   |   |   |   |   |   |   loop2 > 17: x2 (4.0)
|   |   |   |   |   |   |   |   |   |   |   |   |   OI1 > 5.044765: x3 (26.0)
|   |   |   |   |   |   |   |   |   |   |   |   L2size_1 > 461312
|   |   |   |   |   |   |   |   |   |   |   |   |   OI1 <= 7.372963: x2 (7.0/1.0)
|   |   |   |   |   |   |   |   |   |   |   |   |   OI1 > 7.372963
|   |   |   |   |   |   |   |   |   |   |   |   |   |   OI1 <= 59.17668
|   |   |   |   |   |   |   |   |   |   |   |   |   |   |   loop2 <= 4: x3 (3.0)
|   |   |   |   |   |   |   |   |   |   |   |   |   |   |   loop2 > 4
|   |   |   |   |   |   |   |   |   |   |   |   |   |   |   |   loop2 <= 8: x2 (9.0/1.0)
|   |   |   |   |   |   |   |   |   |   |   |   |   |   |   |   loop2 > 8: x3 (4.0/1.0)
|   |   |   |   |   |   |   |   |   |   |   |   |   |   OI1 > 59.17668: x2 (9.0)
|   |   |   |   |   |   |   |   |   |   |   L2size_1 > 704512
|   |   |   |   |   |   |   |   |   |   |   |   L2size_2 <= 1218048
|   |   |   |   |   |   |   |   |   |   |   |   |   L2size_2 <= 1049040
|   |   |   |   |   |   |   |   |   |   |   |   |   |   L2size_2 <= 897488: x7 (23.0/6.0)
|   |   |   |   |   |   |   |   |   |   |   |   |   |   L2size_2 > 897488: x8 (3.0)
|   |   |   |   |   |   |   |   |   |   |   |   |   L2size_2 > 1049040
|   |   |   |   |   |   |   |   |   |   |   |   |   |   L2size_2 <= 1140480: x6 (4.0/1.0)
|   |   |   |   |   |   |   |   |   |   |   |   |   |   L2size_2 > 1140480
|   |   |   |   |   |   |   |   |   |   |   |   |   |   |   loop2 <= 2: x7 (4.0)
|   |   |   |   |   |   |   |   |   |   |   |   |   |   |   loop2 > 2
|   |   |   |   |   |   |   |   |   |   |   |   |   |   |   |   L2size_1 <= 1189888: x6 (2.0)
|   |   |   |   |   |   |   |   |   |   |   |   |   |   |   |   L2size_1 > 1189888: x7 (3.0/1.0)
|   |   |   |   |   |   |   |   |   |   |   |   L2size_2 > 1218048: x1 (28.0/10.0)
|   |   |   |   |   |   |   |   |   F > 64
|   |   |   |   |   |   |   |   |   |   OI3 <= 4.696304
|   |   |   |   |   |   |   |   |   |   |   OI3 <= 2.655486: x7 (4.0)
|   |   |   |   |   |   |   |   |   |   |   OI3 > 2.655486
|   |   |   |   |   |   |   |   |   |   |   |   OI1 <= 3.699666
|   |   |   |   |   |   |   |   |   |   |   |   |   LAMBDA = True: x6 (3.0/1.0)
|   |   |   |   |   |   |   |   |   |   |   |   |   LAMBDA = False: x1 (2.0)
|   |   |   |   |   |   |   |   |   |   |   |   OI1 > 3.699666
|   |   |   |   |   |   |   |   |   |   |   |   |   L2size_2 <= 120896: x1 (18.0)
|   |   |   |   |   |   |   |   |   |   |   |   |   L2size_2 > 120896
|   |   |   |   |   |   |   |   |   |   |   |   |   |   C <= 64: x5 (2.0)
|   |   |   |   |   |   |   |   |   |   |   |   |   |   C > 64
|   |   |   |   |   |   |   |   |   |   |   |   |   |   |   L2size_2 <= 209056: x1 (6.0)
|   |   |   |   |   |   |   |   |   |   |   |   |   |   |   L2size_2 > 209056: x5 (2.0)
|   |   |   |   |   |   |   |   |   |   OI3 > 4.696304
|   |   |   |   |   |   |   |   |   |   |   L2size_2 <= 166912
|   |   |   |   |   |   |   |   |   |   |   |   L2size_2 <= 43616
|   |   |   |   |   |   |   |   |   |   |   |   |   C <= 64
|   |   |   |   |   |   |   |   |   |   |   |   |   |   L2size_2 <= 22416
|   |   |   |   |   |   |   |   |   |   |   |   |   |   |   L2size_2 <= 19568: x7 (3.0/1.0)
|   |   |   |   |   |   |   |   |   |   |   |   |   |   |   L2size_2 > 19568
|   |   |   |   |   |   |   |   |   |   |   |   |   |   |   |   OI1 <= 32.28559: x3 (4.0/1.0)
|   |   |   |   |   |   |   |   |   |   |   |   |   |   |   |   OI1 > 32.28559: x4 (6.0)
|   |   |   |   |   |   |   |   |   |   |   |   |   |   L2size_2 > 22416
|   |   |   |   |   |   |   |   |   |   |   |   |   |   |   LAMBDA = True
|   |   |   |   |   |   |   |   |   |   |   |   |   |   |   |   loop2 <= 2: x2 (18.0/9.0)
|   |   |   |   |   |   |   |   |   |   |   |   |   |   |   |   loop2 > 2
|   |   |   |   |   |   |   |   |   |   |   |   |   |   |   |   |   loop2 <= 8
|   |   |   |   |   |   |   |   |   |   |   |   |   |   |   |   |   |   L2size_1 <= 105104: x1 (10.0/3.0)
|   |   |   |   |   |   |   |   |   |   |   |   |   |   |   |   |   |   L2size_1 > 105104: x2 (4.0/2.0)
|   |   |   |   |   |   |   |   |   |   |   |   |   |   |   |   |   loop2 > 8: x2 (3.0)
|   |   |   |   |   |   |   |   |   |   |   |   |   |   |   LAMBDA = False
|   |   |   |   |   |   |   |   |   |   |   |   |   |   |   |   L2size_2 <= 33008: x4 (4.0)
|   |   |   |   |   |   |   |   |   |   |   |   |   |   |   |   L2size_2 > 33008
|   |   |   |   |   |   |   |   |   |   |   |   |   |   |   |   |   loop2 <= 1: x2 (2.0/1.0)
|   |   |   |   |   |   |   |   |   |   |   |   |   |   |   |   |   loop2 > 1: x1 (3.0)
|   |   |   |   |   |   |   |   |   |   |   |   |   C > 64
|   |   |   |   |   |   |   |   |   |   |   |   |   |   L2size_2 <= 29454
|   |   |   |   |   |   |   |   |   |   |   |   |   |   |   L2size_1 <= 257024
|   |   |   |   |   |   |   |   |   |   |   |   |   |   |   |   L2size_2 <= 23808: x6 (3.0/1.0)
|   |   |   |   |   |   |   |   |   |   |   |   |   |   |   |   L2size_2 > 23808: x7 (14.0/4.0)
|   |   |   |   |   |   |   |   |   |   |   |   |   |   |   L2size_1 > 257024: x8 (5.0)
|   |   |   |   |   |   |   |   |   |   |   |   |   |   L2size_2 > 29454
|   |   |   |   |   |   |   |   |   |   |   |   |   |   |   L2size_2 <= 34784
|   |   |   |   |   |   |   |   |   |   |   |   |   |   |   |   OI3 <= 61.352354: x2 (9.0/4.0)
|   |   |   |   |   |   |   |   |   |   |   |   |   |   |   |   OI3 > 61.352354: x1 (8.0/3.0)
|   |   |   |   |   |   |   |   |   |   |   |   |   |   |   L2size_2 > 34784
|   |   |   |   |   |   |   |   |   |   |   |   |   |   |   |   L2size_2 <= 39104: x7 (3.0/1.0)
|   |   |   |   |   |   |   |   |   |   |   |   |   |   |   |   L2size_2 > 39104: x1 (2.0)
|   |   |   |   |   |   |   |   |   |   |   |   L2size_2 > 43616
|   |   |   |   |   |   |   |   |   |   |   |   |   L2size_2 <= 44568: x7 (18.0/8.0)
|   |   |   |   |   |   |   |   |   |   |   |   |   L2size_2 > 44568
|   |   |   |   |   |   |   |   |   |   |   |   |   |   L2size_2 <= 72448
|   |   |   |   |   |   |   |   |   |   |   |   |   |   |   L2size_1 <= 15512: x8 (7.0)
|   |   |   |   |   |   |   |   |   |   |   |   |   |   |   L2size_1 > 15512
|   |   |   |   |   |   |   |   |   |   |   |   |   |   |   |   L2size_1 <= 50048
|   |   |   |   |   |   |   |   |   |   |   |   |   |   |   |   |   loop2 <= 16
|   |   |   |   |   |   |   |   |   |   |   |   |   |   |   |   |   |   loop2 <= 2: x2 (6.0/2.0)
|   |   |   |   |   |   |   |   |   |   |   |   |   |   |   |   |   |   loop2 > 2: x1 (2.0)
|   |   |   |   |   |   |   |   |   |   |   |   |   |   |   |   |   loop2 > 16: x2 (2.0)
|   |   |   |   |   |   |   |   |   |   |   |   |   |   |   |   L2size_1 > 50048
|   |   |   |   |   |   |   |   |   |   |   |   |   |   |   |   |   L2size_1 <= 67504
|   |   |   |   |   |   |   |   |   |   |   |   |   |   |   |   |   |   L2size_2 <= 50048: x8 (3.0)
|   |   |   |   |   |   |   |   |   |   |   |   |   |   |   |   |   |   L2size_2 > 50048: x3 (2.0)
|   |   |   |   |   |   |   |   |   |   |   |   |   |   |   |   |   L2size_1 > 67504: x2 (9.0/5.0)
|   |   |   |   |   |   |   |   |   |   |   |   |   |   L2size_2 > 72448
|   |   |   |   |   |   |   |   |   |   |   |   |   |   |   loop2 <= 8
|   |   |   |   |   |   |   |   |   |   |   |   |   |   |   |   L2size_2 <= 148560
|   |   |   |   |   |   |   |   |   |   |   |   |   |   |   |   |   L1size_1 <= 2558976
|   |   |   |   |   |   |   |   |   |   |   |   |   |   |   |   |   |   L2size_2 <= 87136
|   |   |   |   |   |   |   |   |   |   |   |   |   |   |   |   |   |   |   C <= 64
|   |   |   |   |   |   |   |   |   |   |   |   |   |   |   |   |   |   |   |   loop2 <= 2
|   |   |   |   |   |   |   |   |   |   |   |   |   |   |   |   |   |   |   |   |   loop2 <= 1
|   |   |   |   |   |   |   |   |   |   |   |   |   |   |   |   |   |   |   |   |   |   L2size_1 <= 14464: x3 (2.0/1.0)
|   |   |   |   |   |   |   |   |   |   |   |   |   |   |   |   |   |   |   |   |   |   L2size_1 > 14464: x7 (2.0)
|   |   |   |   |   |   |   |   |   |   |   |   |   |   |   |   |   |   |   |   |   loop2 > 1: x8 (4.0)
|   |   |   |   |   |   |   |   |   |   |   |   |   |   |   |   |   |   |   |   loop2 > 2: x7 (6.0/3.0)
|   |   |   |   |   |   |   |   |   |   |   |   |   |   |   |   |   |   |   C > 64: x2 (3.0/1.0)
|   |   |   |   |   |   |   |   |   |   |   |   |   |   |   |   |   |   L2size_2 > 87136: x7 (24.0/9.0)
|   |   |   |   |   |   |   |   |   |   |   |   |   |   |   |   |   L1size_1 > 2558976: x1 (3.0)
|   |   |   |   |   |   |   |   |   |   |   |   |   |   |   |   L2size_2 > 148560: x1 (6.0/3.0)
|   |   |   |   |   |   |   |   |   |   |   |   |   |   |   loop2 > 8
|   |   |   |   |   |   |   |   |   |   |   |   |   |   |   |   C <= 64: x8 (2.0)
|   |   |   |   |   |   |   |   |   |   |   |   |   |   |   |   C > 64
|   |   |   |   |   |   |   |   |   |   |   |   |   |   |   |   |   L2size_1 <= 139152
|   |   |   |   |   |   |   |   |   |   |   |   |   |   |   |   |   |   L2size_1 <= 131840: x2 (8.0/3.0)
|   |   |   |   |   |   |   |   |   |   |   |   |   |   |   |   |   |   L2size_1 > 131840: x3 (2.0)
|   |   |   |   |   |   |   |   |   |   |   |   |   |   |   |   |   L2size_1 > 139152: x7 (5.0/1.0)
|   |   |   |   |   |   |   |   |   |   |   L2size_2 > 166912
|   |   |   |   |   |   |   |   |   |   |   |   L2size_1 <= 641984
|   |   |   |   |   |   |   |   |   |   |   |   |   loop2 <= 1: x1 (4.0/2.0)
|   |   |   |   |   |   |   |   |   |   |   |   |   loop2 > 1: x3 (23.0/14.0)
|   |   |   |   |   |   |   |   |   |   |   |   L2size_1 > 641984
|   |   |   |   |   |   |   |   |   |   |   |   |   loop2 <= 1: x2 (7.0/3.0)
|   |   |   |   |   |   |   |   |   |   |   |   |   loop2 > 1: x4 (2.0)
|   |   |   |   |   |   |   L2size_2 > 1265152
|   |   |   |   |   |   |   |   L2size_1 <= 4802560
|   |   |   |   |   |   |   |   |   F <= 64
|   |   |   |   |   |   |   |   |   |   LAMBDA = True
|   |   |   |   |   |   |   |   |   |   |   L2size_2 <= 2791168
|   |   |   |   |   |   |   |   |   |   |   |   L2size_1 <= 3053824
|   |   |   |   |   |   |   |   |   |   |   |   |   loop2 <= 1
|   |   |   |   |   |   |   |   |   |   |   |   |   |   L1size_1 <= 2676480
|   |   |   |   |   |   |   |   |   |   |   |   |   |   |   OI1 <= 48.185504: x6 (3.0/1.0)
|   |   |   |   |   |   |   |   |   |   |   |   |   |   |   OI1 > 48.185504: x7 (3.0)
|   |   |   |   |   |   |   |   |   |   |   |   |   |   L1size_1 > 2676480: x8 (4.0/1.0)
|   |   |   |   |   |   |   |   |   |   |   |   |   loop2 > 1
|   |   |   |   |   |   |   |   |   |   |   |   |   |   L2size_1 <= 2370304
|   |   |   |   |   |   |   |   |   |   |   |   |   |   |   loop2 <= 2: x8 (5.0/1.0)
|   |   |   |   |   |   |   |   |   |   |   |   |   |   |   loop2 > 2: x7 (7.0)
|   |   |   |   |   |   |   |   |   |   |   |   |   |   L2size_1 > 2370304: x8 (9.0/1.0)
|   |   |   |   |   |   |   |   |   |   |   |   L2size_1 > 3053824: x7 (10.0)
|   |   |   |   |   |   |   |   |   |   |   L2size_2 > 2791168: x7 (45.0/2.0)
|   |   |   |   |   |   |   |   |   |   LAMBDA = False
|   |   |   |   |   |   |   |   |   |   |   L2size_2 <= 2854912: x7 (24.0/6.0)
|   |   |   |   |   |   |   |   |   |   |   L2size_2 > 2854912
|   |   |   |   |   |   |   |   |   |   |   |   OI3 <= 1.888809: x6 (4.0)
|   |   |   |   |   |   |   |   |   |   |   |   OI3 > 1.888809
|   |   |   |   |   |   |   |   |   |   |   |   |   L2size_1 <= 3333632
|   |   |   |   |   |   |   |   |   |   |   |   |   |   OI1 <= 1.994757: x7 (2.0)
|   |   |   |   |   |   |   |   |   |   |   |   |   |   OI1 > 1.994757: x6 (11.0/4.0)
|   |   |   |   |   |   |   |   |   |   |   |   |   L2size_1 > 3333632: x7 (2.0)
|   |   |   |   |   |   |   |   |   F > 64: x4 (3.0/1.0)
|   |   |   |   |   |   |   |   L2size_1 > 4802560
|   |   |   |   |   |   |   |   |   LAMBDA = True
|   |   |   |   |   |   |   |   |   |   L2size_1 <= 5065728: x6 (8.0/1.0)
|   |   |   |   |   |   |   |   |   |   L2size_1 > 5065728: x7 (8.0/1.0)
|   |   |   |   |   |   |   |   |   LAMBDA = False
|   |   |   |   |   |   |   |   |   |   L2size_1 <= 10115584: x4 (11.0/1.0)
|   |   |   |   |   |   |   |   |   |   L2size_1 > 10115584: x5 (2.0/1.0)
|   |   |   |   |   |   KH > 3
|   |   |   |   |   |   |   L1size_1 <= 743456
|   |   |   |   |   |   |   |   loop2 <= 1: x3 (6.0/1.0)
|   |   |   |   |   |   |   |   loop2 > 1: x4 (5.0)
|   |   |   |   |   |   |   L1size_1 > 743456: x3 (26.0)
|   |   |   F > 128
|   |   |   |   C <= 512
|   |   |   |   |   L1size_1 <= 23326720
|   |   |   |   |   |   L1size_1 <= 22317056
|   |   |   |   |   |   |   OI2 <= 180.471176
|   |   |   |   |   |   |   |   L2size_2 <= 10318976
|   |   |   |   |   |   |   |   |   L2size_2 <= 441552
|   |   |   |   |   |   |   |   |   |   OI3 <= 77.654714
|   |   |   |   |   |   |   |   |   |   |   OI3 <= 7.449039
|   |   |   |   |   |   |   |   |   |   |   |   X <= 17: x0 (6.0/1.0)
|   |   |   |   |   |   |   |   |   |   |   |   X > 17
|   |   |   |   |   |   |   |   |   |   |   |   |   OI1 <= 2.309681: x0 (6.0/1.0)
|   |   |   |   |   |   |   |   |   |   |   |   |   OI1 > 2.309681: x1 (25.0/3.0)
|   |   |   |   |   |   |   |   |   |   |   OI3 > 7.449039
|   |   |   |   |   |   |   |   |   |   |   |   LAMBDA = True
|   |   |   |   |   |   |   |   |   |   |   |   |   Stride <= 1
|   |   |   |   |   |   |   |   |   |   |   |   |   |   X <= 17: x3 (5.0/1.0)
|   |   |   |   |   |   |   |   |   |   |   |   |   |   X > 17
|   |   |   |   |   |   |   |   |   |   |   |   |   |   |   C <= 128
|   |   |   |   |   |   |   |   |   |   |   |   |   |   |   |   L2size_1 <= 121060
|   |   |   |   |   |   |   |   |   |   |   |   |   |   |   |   |   loop2 <= 14
|   |   |   |   |   |   |   |   |   |   |   |   |   |   |   |   |   |   OI3 <= 65.593115: x8 (4.0/1.0)
|   |   |   |   |   |   |   |   |   |   |   |   |   |   |   |   |   |   OI3 > 65.593115: x7 (4.0/1.0)
|   |   |   |   |   |   |   |   |   |   |   |   |   |   |   |   |   loop2 > 14: x1 (2.0/1.0)
|   |   |   |   |   |   |   |   |   |   |   |   |   |   |   |   L2size_1 > 121060
|   |   |   |   |   |   |   |   |   |   |   |   |   |   |   |   |   loop2 <= 17
|   |   |   |   |   |   |   |   |   |   |   |   |   |   |   |   |   |   loop2 <= 2: x1 (6.0/2.0)
|   |   |   |   |   |   |   |   |   |   |   |   |   |   |   |   |   |   loop2 > 2: x0 (27.0/11.0)
|   |   |   |   |   |   |   |   |   |   |   |   |   |   |   |   |   loop2 > 17
|   |   |   |   |   |   |   |   |   |   |   |   |   |   |   |   |   |   OI1 <= 9.752164: x2 (2.0/1.0)
|   |   |   |   |   |   |   |   |   |   |   |   |   |   |   |   |   |   OI1 > 9.752164: x3 (2.0)
|   |   |   |   |   |   |   |   |   |   |   |   |   |   |   C > 128
|   |   |   |   |   |   |   |   |   |   |   |   |   |   |   |   F <= 256
|   |   |   |   |   |   |   |   |   |   |   |   |   |   |   |   |   L2size_1 <= 320600
|   |   |   |   |   |   |   |   |   |   |   |   |   |   |   |   |   |   OI1 <= 24.565337: x8 (2.0)
|   |   |   |   |   |   |   |   |   |   |   |   |   |   |   |   |   |   OI1 > 24.565337: x6 (2.0)
|   |   |   |   |   |   |   |   |   |   |   |   |   |   |   |   |   L2size_1 > 320600
|   |   |   |   |   |   |   |   |   |   |   |   |   |   |   |   |   |   L2size_2 <= 190720: x6 (6.0/2.0)
|   |   |   |   |   |   |   |   |   |   |   |   |   |   |   |   |   |   L2size_2 > 190720
|   |   |   |   |   |   |   |   |   |   |   |   |   |   |   |   |   |   |   L2size_2 <= 326144: x7 (5.0)
|   |   |   |   |   |   |   |   |   |   |   |   |   |   |   |   |   |   |   L2size_2 > 326144: x6 (2.0)
|   |   |   |   |   |   |   |   |   |   |   |   |   |   |   |   F > 256: x2 (3.0/2.0)
|   |   |   |   |   |   |   |   |   |   |   |   |   Stride > 1: x3 (22.0/5.0)
|   |   |   |   |   |   |   |   |   |   |   |   LAMBDA = False
|   |   |   |   |   |   |   |   |   |   |   |   |   OI2 <= 10.283255
|   |   |   |   |   |   |   |   |   |   |   |   |   |   F <= 256
|   |   |   |   |   |   |   |   |   |   |   |   |   |   |   L1size_1 <= 13243136: x2 (28.0/8.0)
|   |   |   |   |   |   |   |   |   |   |   |   |   |   |   L1size_1 > 13243136
|   |   |   |   |   |   |   |   |   |   |   |   |   |   |   |   L2size_1 <= 154064: x1 (2.0)
|   |   |   |   |   |   |   |   |   |   |   |   |   |   |   |   L2size_1 > 154064: x7 (5.0/1.0)
|   |   |   |   |   |   |   |   |   |   |   |   |   |   F > 256: x6 (6.0/2.0)
|   |   |   |   |   |   |   |   |   |   |   |   |   OI2 > 10.283255
|   |   |   |   |   |   |   |   |   |   |   |   |   |   loop2 <= 8
|   |   |   |   |   |   |   |   |   |   |   |   |   |   |   loop2 <= 1
|   |   |   |   |   |   |   |   |   |   |   |   |   |   |   |   C <= 256
|   |   |   |   |   |   |   |   |   |   |   |   |   |   |   |   |   PeakPerf <= 255688704
|   |   |   |   |   |   |   |   |   |   |   |   |   |   |   |   |   |   L1size_1 <= 344960
|   |   |   |   |   |   |   |   |   |   |   |   |   |   |   |   |   |   |   OI3 <= 35.72093: x2 (2.0)
|   |   |   |   |   |   |   |   |   |   |   |   |   |   |   |   |   |   |   OI3 > 35.72093
|   |   |   |   |   |   |   |   |   |   |   |   |   |   |   |   |   |   |   |   OI3 <= 63.353535: x1 (2.0)
|   |   |   |   |   |   |   |   |   |   |   |   |   |   |   |   |   |   |   |   OI3 > 63.353535: x2 (3.0/1.0)
|   |   |   |   |   |   |   |   |   |   |   |   |   |   |   |   |   |   L1size_1 > 344960
|   |   |   |   |   |   |   |   |   |   |   |   |   |   |   |   |   |   |   OI1 <= 86.235696
|   |   |   |   |   |   |   |   |   |   |   |   |   |   |   |   |   |   |   |   L1size_1 <= 1047424: x6 (5.0/2.0)
|   |   |   |   |   |   |   |   |   |   |   |   |   |   |   |   |   |   |   |   L1size_1 > 1047424: x7 (2.0)
|   |   |   |   |   |   |   |   |   |   |   |   |   |   |   |   |   |   |   OI1 > 86.235696: x2 (4.0/2.0)
|   |   |   |   |   |   |   |   |   |   |   |   |   |   |   |   |   PeakPerf > 255688704
|   |   |   |   |   |   |   |   |   |   |   |   |   |   |   |   |   |   L2size_2 <= 214552: x2 (11.0/1.0)
|   |   |   |   |   |   |   |   |   |   |   |   |   |   |   |   |   |   L2size_2 > 214552
|   |   |   |   |   |   |   |   |   |   |   |   |   |   |   |   |   |   |   L2size_1 <= 2663424: x5 (2.0)
|   |   |   |   |   |   |   |   |   |   |   |   |   |   |   |   |   |   |   L2size_1 > 2663424: x7 (2.0)
|   |   |   |   |   |   |   |   |   |   |   |   |   |   |   |   C > 256
|   |   |   |   |   |   |   |   |   |   |   |   |   |   |   |   |   L2size_1 <= 2350250: x2 (2.0/1.0)
|   |   |   |   |   |   |   |   |   |   |   |   |   |   |   |   |   L2size_1 > 2350250: x3 (7.0/3.0)
|   |   |   |   |   |   |   |   |   |   |   |   |   |   |   loop2 > 1
|   |   |   |   |   |   |   |   |   |   |   |   |   |   |   |   OI1 <= 28.511089
|   |   |   |   |   |   |   |   |   |   |   |   |   |   |   |   |   Stride <= 1
|   |   |   |   |   |   |   |   |   |   |   |   |   |   |   |   |   |   F <= 256: x1 (96.0/41.0)
|   |   |   |   |   |   |   |   |   |   |   |   |   |   |   |   |   |   F > 256: x2 (3.0)
|   |   |   |   |   |   |   |   |   |   |   |   |   |   |   |   |   Stride > 1: x2 (11.0/4.0)
|   |   |   |   |   |   |   |   |   |   |   |   |   |   |   |   OI1 > 28.511089
|   |   |   |   |   |   |   |   |   |   |   |   |   |   |   |   |   L2size_2 <= 236224
|   |   |   |   |   |   |   |   |   |   |   |   |   |   |   |   |   |   L2size_2 <= 79200
|   |   |   |   |   |   |   |   |   |   |   |   |   |   |   |   |   |   |   loop2 <= 2: x3 (5.0/1.0)
|   |   |   |   |   |   |   |   |   |   |   |   |   |   |   |   |   |   |   loop2 > 2: x4 (4.0/2.0)
|   |   |   |   |   |   |   |   |   |   |   |   |   |   |   |   |   |   L2size_2 > 79200
|   |   |   |   |   |   |   |   |   |   |   |   |   |   |   |   |   |   |   X <= 17
|   |   |   |   |   |   |   |   |   |   |   |   |   |   |   |   |   |   |   |   L2size_2 <= 125696: x1 (5.0/2.0)
|   |   |   |   |   |   |   |   |   |   |   |   |   |   |   |   |   |   |   |   L2size_2 > 125696: x2 (36.0/18.0)
|   |   |   |   |   |   |   |   |   |   |   |   |   |   |   |   |   |   |   X > 17: x1 (86.0/39.0)
|   |   |   |   |   |   |   |   |   |   |   |   |   |   |   |   |   L2size_2 > 236224
|   |   |   |   |   |   |   |   |   |   |   |   |   |   |   |   |   |   PeakPerf <= 255688704
|   |   |   |   |   |   |   |   |   |   |   |   |   |   |   |   |   |   |   loop2 <= 2: x2 (8.0)
|   |   |   |   |   |   |   |   |   |   |   |   |   |   |   |   |   |   |   loop2 > 2: x1 (4.0/2.0)
|   |   |   |   |   |   |   |   |   |   |   |   |   |   |   |   |   |   PeakPerf > 255688704
|   |   |   |   |   |   |   |   |   |   |   |   |   |   |   |   |   |   |   F <= 256
|   |   |   |   |   |   |   |   |   |   |   |   |   |   |   |   |   |   |   |   L2size_1 <= 385536
|   |   |   |   |   |   |   |   |   |   |   |   |   |   |   |   |   |   |   |   |   OI1 <= 29.812444
|   |   |   |   |   |   |   |   |   |   |   |   |   |   |   |   |   |   |   |   |   |   loop2 <= 4: x3 (14.0/11.0)
|   |   |   |   |   |   |   |   |   |   |   |   |   |   |   |   |   |   |   |   |   |   loop2 > 4: x1 (13.0/6.0)
|   |   |   |   |   |   |   |   |   |   |   |   |   |   |   |   |   |   |   |   |   OI1 > 29.812444
|   |   |   |   |   |   |   |   |   |   |   |   |   |   |   |   |   |   |   |   |   |   OI3 <= 29.630524: x7 (3.0)
|   |   |   |   |   |   |   |   |   |   |   |   |   |   |   |   |   |   |   |   |   |   OI3 > 29.630524: x6 (11.0/6.0)
|   |   |   |   |   |   |   |   |   |   |   |   |   |   |   |   |   |   |   |   L2size_1 > 385536: x7 (5.0/1.0)
|   |   |   |   |   |   |   |   |   |   |   |   |   |   |   |   |   |   |   F > 256: x1 (3.0)
|   |   |   |   |   |   |   |   |   |   |   |   |   |   loop2 > 8
|   |   |   |   |   |   |   |   |   |   |   |   |   |   |   loop2 <= 17
|   |   |   |   |   |   |   |   |   |   |   |   |   |   |   |   L2size_2 <= 292416: x1 (69.0/10.0)
|   |   |   |   |   |   |   |   |   |   |   |   |   |   |   |   L2size_2 > 292416: x3 (3.0/1.0)
|   |   |   |   |   |   |   |   |   |   |   |   |   |   |   loop2 > 17
|   |   |   |   |   |   |   |   |   |   |   |   |   |   |   |   C <= 128
|   |   |   |   |   |   |   |   |   |   |   |   |   |   |   |   |   L2size_2 <= 89824: x7 (2.0)
|   |   |   |   |   |   |   |   |   |   |   |   |   |   |   |   |   L2size_2 > 89824: x3 (4.0)
|   |   |   |   |   |   |   |   |   |   |   |   |   |   |   |   C > 128: x7 (7.0/1.0)
|   |   |   |   |   |   |   |   |   |   OI3 > 77.654714
|   |   |   |   |   |   |   |   |   |   |   loop2 <= 4
|   |   |   |   |   |   |   |   |   |   |   |   X <= 28
|   |   |   |   |   |   |   |   |   |   |   |   |   L1size_1 <= 1105920
|   |   |   |   |   |   |   |   |   |   |   |   |   |   L2size_1 <= 147584: x4 (11.0/3.0)
|   |   |   |   |   |   |   |   |   |   |   |   |   |   L2size_1 > 147584
|   |   |   |   |   |   |   |   |   |   |   |   |   |   |   LAMBDA = True: x1 (8.0/5.0)
|   |   |   |   |   |   |   |   |   |   |   |   |   |   |   LAMBDA = False
|   |   |   |   |   |   |   |   |   |   |   |   |   |   |   |   L1size_1 <= 609280: x2 (12.0/5.0)
|   |   |   |   |   |   |   |   |   |   |   |   |   |   |   |   L1size_1 > 609280: x4 (3.0/1.0)
|   |   |   |   |   |   |   |   |   |   |   |   |   L1size_1 > 1105920
|   |   |   |   |   |   |   |   |   |   |   |   |   |   OI2 <= 116.784561
|   |   |   |   |   |   |   |   |   |   |   |   |   |   |   L1size_1 <= 2248960
|   |   |   |   |   |   |   |   |   |   |   |   |   |   |   |   OI2 <= 115.239252: x7 (5.0/2.0)
|   |   |   |   |   |   |   |   |   |   |   |   |   |   |   |   OI2 > 115.239252: x6 (2.0)
|   |   |   |   |   |   |   |   |   |   |   |   |   |   |   L1size_1 > 2248960: x3 (2.0/1.0)
|   |   |   |   |   |   |   |   |   |   |   |   |   |   OI2 > 116.784561: x2 (6.0/3.0)
|   |   |   |   |   |   |   |   |   |   |   |   X > 28: x3 (3.0)
|   |   |   |   |   |   |   |   |   |   |   loop2 > 4
|   |   |   |   |   |   |   |   |   |   |   |   L1size_1 <= 517888
|   |   |   |   |   |   |   |   |   |   |   |   |   L2size_2 <= 217504
|   |   |   |   |   |   |   |   |   |   |   |   |   |   OI3 <= 138.884822: x4 (12.0/5.0)
|   |   |   |   |   |   |   |   |   |   |   |   |   |   OI3 > 138.884822
|   |   |   |   |   |   |   |   |   |   |   |   |   |   |   OI1 <= 177.141694: x5 (12.0/4.0)
|   |   |   |   |   |   |   |   |   |   |   |   |   |   |   OI1 > 177.141694: x2 (4.0/1.0)
|   |   |   |   |   |   |   |   |   |   |   |   |   L2size_2 > 217504: x3 (14.0/3.0)
|   |   |   |   |   |   |   |   |   |   |   |   L1size_1 > 517888: x1 (4.0/2.0)
|   |   |   |   |   |   |   |   |   L2size_2 > 441552
|   |   |   |   |   |   |   |   |   |   OI1 <= 22.797486
|   |   |   |   |   |   |   |   |   |   |   LAMBDA = True
|   |   |   |   |   |   |   |   |   |   |   |   X <= 28
|   |   |   |   |   |   |   |   |   |   |   |   |   L2size_1 <= 3344896
|   |   |   |   |   |   |   |   |   |   |   |   |   |   L1size_1 <= 8120832
|   |   |   |   |   |   |   |   |   |   |   |   |   |   |   loop2 <= 4: x4 (3.0/1.0)
|   |   |   |   |   |   |   |   |   |   |   |   |   |   |   loop2 > 4: x3 (4.0)
|   |   |   |   |   |   |   |   |   |   |   |   |   |   L1size_1 > 8120832
|   |   |   |   |   |   |   |   |   |   |   |   |   |   |   L1size_1 <= 11628544: x2 (6.0/1.0)
|   |   |   |   |   |   |   |   |   |   |   |   |   |   |   L1size_1 > 11628544: x1 (3.0/2.0)
|   |   |   |   |   |   |   |   |   |   |   |   |   L2size_1 > 3344896
|   |   |   |   |   |   |   |   |   |   |   |   |   |   L2size_2 <= 9114176: x3 (199.0/9.0)
|   |   |   |   |   |   |   |   |   |   |   |   |   |   L2size_2 > 9114176
|   |   |   |   |   |   |   |   |   |   |   |   |   |   |   OI2 <= 16.843735: x6 (3.0)
|   |   |   |   |   |   |   |   |   |   |   |   |   |   |   OI2 > 16.843735: x3 (5.0/2.0)
|   |   |   |   |   |   |   |   |   |   |   |   X > 28
|   |   |   |   |   |   |   |   |   |   |   |   |   L2size_2 <= 8866816: x6 (2.0/1.0)
|   |   |   |   |   |   |   |   |   |   |   |   |   L2size_2 > 8866816: x8 (3.0)
|   |   |   |   |   |   |   |   |   |   |   LAMBDA = False
|   |   |   |   |   |   |   |   |   |   |   |   L2size_2 <= 497248
|   |   |   |   |   |   |   |   |   |   |   |   |   OI1 <= 10.382032: x1 (3.0)
|   |   |   |   |   |   |   |   |   |   |   |   |   OI1 > 10.382032: x6 (2.0)
|   |   |   |   |   |   |   |   |   |   |   |   L2size_2 > 497248
|   |   |   |   |   |   |   |   |   |   |   |   |   OI1 <= 21.555772
|   |   |   |   |   |   |   |   |   |   |   |   |   |   loop2 <= 7: x3 (3.0/1.0)
|   |   |   |   |   |   |   |   |   |   |   |   |   |   loop2 > 7
|   |   |   |   |   |   |   |   |   |   |   |   |   |   |   L2size_1 <= 1341792: x5 (6.0/2.0)
|   |   |   |   |   |   |   |   |   |   |   |   |   |   |   L2size_1 > 1341792
|   |   |   |   |   |   |   |   |   |   |   |   |   |   |   |   L2size_1 <= 5025920
|   |   |   |   |   |   |   |   |   |   |   |   |   |   |   |   |   L2size_1 <= 2530688: x3 (3.0)
|   |   |   |   |   |   |   |   |   |   |   |   |   |   |   |   |   L2size_1 > 2530688: x2 (3.0/1.0)
|   |   |   |   |   |   |   |   |   |   |   |   |   |   |   |   L2size_1 > 5025920: x5 (2.0)
|   |   |   |   |   |   |   |   |   |   |   |   |   OI1 > 21.555772: x1 (5.0/1.0)
|   |   |   |   |   |   |   |   |   |   OI1 > 22.797486
|   |   |   |   |   |   |   |   |   |   |   L1size_1 <= 898560
|   |   |   |   |   |   |   |   |   |   |   |   loop2 <= 2
|   |   |   |   |   |   |   |   |   |   |   |   |   X <= 28
|   |   |   |   |   |   |   |   |   |   |   |   |   |   L2size_1 <= 326144: x3 (8.0/5.0)
|   |   |   |   |   |   |   |   |   |   |   |   |   |   L2size_1 > 326144
|   |   |   |   |   |   |   |   |   |   |   |   |   |   |   OI3 <= 54.992419: x2 (22.0/2.0)
|   |   |   |   |   |   |   |   |   |   |   |   |   |   |   OI3 > 54.992419
|   |   |   |   |   |   |   |   |   |   |   |   |   |   |   |   L1size_1 <= 531494
|   |   |   |   |   |   |   |   |   |   |   |   |   |   |   |   |   loop2 <= 1
|   |   |   |   |   |   |   |   |   |   |   |   |   |   |   |   |   |   L1size_1 <= 3928
|   |   |   |   |   |   |   |   |   |   |   |   |   |   |   |   |   |   |   L1size_1 <= 2312: x3 (2.0/1.0)
|   |   |   |   |   |   |   |   |   |   |   |   |   |   |   |   |   |   |   L1size_1 > 2312: x2 (7.0)
|   |   |   |   |   |   |   |   |   |   |   |   |   |   |   |   |   |   L1size_1 > 3928: x3 (6.0/2.0)
|   |   |   |   |   |   |   |   |   |   |   |   |   |   |   |   |   loop2 > 1: x2 (11.0/3.0)
|   |   |   |   |   |   |   |   |   |   |   |   |   |   |   |   L1size_1 > 531494
|   |   |   |   |   |   |   |   |   |   |   |   |   |   |   |   |   OI1 <= 71.91329
|   |   |   |   |   |   |   |   |   |   |   |   |   |   |   |   |   |   X <= 17: x1 (4.0/1.0)
|   |   |   |   |   |   |   |   |   |   |   |   |   |   |   |   |   |   X > 17
|   |   |   |   |   |   |   |   |   |   |   |   |   |   |   |   |   |   |   OI1 <= 70.504918: x1 (5.0/1.0)
|   |   |   |   |   |   |   |   |   |   |   |   |   |   |   |   |   |   |   OI1 > 70.504918: x2 (2.0)
|   |   |   |   |   |   |   |   |   |   |   |   |   |   |   |   |   OI1 > 71.91329
|   |   |   |   |   |   |   |   |   |   |   |   |   |   |   |   |   |   loop2 <= 1
|   |   |   |   |   |   |   |   |   |   |   |   |   |   |   |   |   |   |   C <= 128
|   |   |   |   |   |   |   |   |   |   |   |   |   |   |   |   |   |   |   |   OI1 <= 155.841086: x2 (3.0/1.0)
|   |   |   |   |   |   |   |   |   |   |   |   |   |   |   |   |   |   |   |   OI1 > 155.841086: x3 (2.0)
|   |   |   |   |   |   |   |   |   |   |   |   |   |   |   |   |   |   |   C > 128: x1 (6.0/3.0)
|   |   |   |   |   |   |   |   |   |   |   |   |   |   |   |   |   |   loop2 > 1
|   |   |   |   |   |   |   |   |   |   |   |   |   |   |   |   |   |   |   C <= 128: x1 (10.0/4.0)
|   |   |   |   |   |   |   |   |   |   |   |   |   |   |   |   |   |   |   C > 128: x3 (5.0)
|   |   |   |   |   |   |   |   |   |   |   |   |   X > 28
|   |   |   |   |   |   |   |   |   |   |   |   |   |   loop2 <= 1
|   |   |   |   |   |   |   |   |   |   |   |   |   |   |   L1size_1 <= 2986: x2 (2.0)
|   |   |   |   |   |   |   |   |   |   |   |   |   |   |   L1size_1 > 2986: x1 (15.0/5.0)
|   |   |   |   |   |   |   |   |   |   |   |   |   |   loop2 > 1
|   |   |   |   |   |   |   |   |   |   |   |   |   |   |   L1size_1 <= 2986: x1 (3.0)
|   |   |   |   |   |   |   |   |   |   |   |   |   |   |   L1size_1 > 2986
|   |   |   |   |   |   |   |   |   |   |   |   |   |   |   |   OI1 <= 145.233045: x3 (2.0)
|   |   |   |   |   |   |   |   |   |   |   |   |   |   |   |   OI1 > 145.233045: x0 (13.0/5.0)
|   |   |   |   |   |   |   |   |   |   |   |   loop2 > 2
|   |   |   |   |   |   |   |   |   |   |   |   |   C <= 128: x3 (2.0)
|   |   |   |   |   |   |   |   |   |   |   |   |   C > 128
|   |   |   |   |   |   |   |   |   |   |   |   |   |   OI2 <= 113.026969: x3 (3.0/2.0)
|   |   |   |   |   |   |   |   |   |   |   |   |   |   OI2 > 113.026969: x1 (28.0)
|   |   |   |   |   |   |   |   |   |   |   L1size_1 > 898560
|   |   |   |   |   |   |   |   |   |   |   |   X <= 34
|   |   |   |   |   |   |   |   |   |   |   |   |   L2size_1 <= 558208
|   |   |   |   |   |   |   |   |   |   |   |   |   |   X <= 28
|   |   |   |   |   |   |   |   |   |   |   |   |   |   |   OI2 <= 98.022708
|   |   |   |   |   |   |   |   |   |   |   |   |   |   |   |   OI2 <= 65.100227
|   |   |   |   |   |   |   |   |   |   |   |   |   |   |   |   |   L2size_2 <= 1838400
|   |   |   |   |   |   |   |   |   |   |   |   |   |   |   |   |   |   OI2 <= 59.798641
|   |   |   |   |   |   |   |   |   |   |   |   |   |   |   |   |   |   |   L2size_1 <= 554176
|   |   |   |   |   |   |   |   |   |   |   |   |   |   |   |   |   |   |   |   loop2 <= 2
|   |   |   |   |   |   |   |   |   |   |   |   |   |   |   |   |   |   |   |   |   L1size_1 <= 3885056: x2 (5.0/1.0)
|   |   |   |   |   |   |   |   |   |   |   |   |   |   |   |   |   |   |   |   |   L1size_1 > 3885056
|   |   |   |   |   |   |   |   |   |   |   |   |   |   |   |   |   |   |   |   |   |   OI1 <= 43.71901: x2 (3.0/1.0)
|   |   |   |   |   |   |   |   |   |   |   |   |   |   |   |   |   |   |   |   |   |   OI1 > 43.71901: x4 (6.0/1.0)
|   |   |   |   |   |   |   |   |   |   |   |   |   |   |   |   |   |   |   |   loop2 > 2: x0 (3.0/2.0)
|   |   |   |   |   |   |   |   |   |   |   |   |   |   |   |   |   |   |   L2size_1 > 554176: x1 (3.0/1.0)
|   |   |   |   |   |   |   |   |   |   |   |   |   |   |   |   |   |   OI2 > 59.798641: x5 (4.0/1.0)
|   |   |   |   |   |   |   |   |   |   |   |   |   |   |   |   |   L2size_2 > 1838400
|   |   |   |   |   |   |   |   |   |   |   |   |   |   |   |   |   |   L2size_2 <= 3561024
|   |   |   |   |   |   |   |   |   |   |   |   |   |   |   |   |   |   |   loop2 <= 2: x1 (4.0)
|   |   |   |   |   |   |   |   |   |   |   |   |   |   |   |   |   |   |   loop2 > 2: x0 (7.0/2.0)
|   |   |   |   |   |   |   |   |   |   |   |   |   |   |   |   |   |   L2size_2 > 3561024
|   |   |   |   |   |   |   |   |   |   |   |   |   |   |   |   |   |   |   L1size_1 <= 7095296: x6 (5.0/1.0)
|   |   |   |   |   |   |   |   |   |   |   |   |   |   |   |   |   |   |   L1size_1 > 7095296
|   |   |   |   |   |   |   |   |   |   |   |   |   |   |   |   |   |   |   |   OI3 <= 31.108225: x4 (4.0/1.0)
|   |   |   |   |   |   |   |   |   |   |   |   |   |   |   |   |   |   |   |   OI3 > 31.108225: x5 (3.0/1.0)
|   |   |   |   |   |   |   |   |   |   |   |   |   |   |   |   OI2 > 65.100227
|   |   |   |   |   |   |   |   |   |   |   |   |   |   |   |   |   L2size_2 <= 975360
|   |   |   |   |   |   |   |   |   |   |   |   |   |   |   |   |   |   OI1 <= 87.197316: x3 (2.0)
|   |   |   |   |   |   |   |   |   |   |   |   |   |   |   |   |   |   OI1 > 87.197316: x4 (2.0)
|   |   |   |   |   |   |   |   |   |   |   |   |   |   |   |   |   L2size_2 > 975360: x1 (12.0/2.0)
|   |   |   |   |   |   |   |   |   |   |   |   |   |   |   OI2 > 98.022708: x4 (18.0/7.0)
|   |   |   |   |   |   |   |   |   |   |   |   |   |   X > 28
|   |   |   |   |   |   |   |   |   |   |   |   |   |   |   loop2 <= 1: x3 (5.0)
|   |   |   |   |   |   |   |   |   |   |   |   |   |   |   loop2 > 1: x4 (2.0)
|   |   |   |   |   |   |   |   |   |   |   |   |   L2size_1 > 558208
|   |   |   |   |   |   |   |   |   |   |   |   |   |   L2size_2 <= 955904
|   |   |   |   |   |   |   |   |   |   |   |   |   |   |   LAMBDA = True
|   |   |   |   |   |   |   |   |   |   |   |   |   |   |   |   L2size_2 <= 819200
|   |   |   |   |   |   |   |   |   |   |   |   |   |   |   |   |   L2size_2 <= 785664: x5 (12.0)
|   |   |   |   |   |   |   |   |   |   |   |   |   |   |   |   |   L2size_2 > 785664: x1 (2.0/1.0)
|   |   |   |   |   |   |   |   |   |   |   |   |   |   |   |   L2size_2 > 819200
|   |   |   |   |   |   |   |   |   |   |   |   |   |   |   |   |   C <= 256
|   |   |   |   |   |   |   |   |   |   |   |   |   |   |   |   |   |   L2size_1 <= 939136: x7 (5.0/2.0)
|   |   |   |   |   |   |   |   |   |   |   |   |   |   |   |   |   |   L2size_1 > 939136: x6 (7.0)
|   |   |   |   |   |   |   |   |   |   |   |   |   |   |   |   |   C > 256: x5 (2.0)
|   |   |   |   |   |   |   |   |   |   |   |   |   |   |   LAMBDA = False
|   |   |   |   |   |   |   |   |   |   |   |   |   |   |   |   L2size_2 <= 504832: x6 (4.0)
|   |   |   |   |   |   |   |   |   |   |   |   |   |   |   |   L2size_2 > 504832
|   |   |   |   |   |   |   |   |   |   |   |   |   |   |   |   |   L2size_1 <= 924672
|   |   |   |   |   |   |   |   |   |   |   |   |   |   |   |   |   |   L2size_2 <= 621648: x2 (59.0/24.0)
|   |   |   |   |   |   |   |   |   |   |   |   |   |   |   |   |   |   L2size_2 > 621648
|   |   |   |   |   |   |   |   |   |   |   |   |   |   |   |   |   |   |   L2size_1 <= 887808: x5 (7.0/2.0)
|   |   |   |   |   |   |   |   |   |   |   |   |   |   |   |   |   |   |   L2size_1 > 887808: x2 (3.0/1.0)
|   |   |   |   |   |   |   |   |   |   |   |   |   |   |   |   |   L2size_1 > 924672
|   |   |   |   |   |   |   |   |   |   |   |   |   |   |   |   |   |   F <= 256: x4 (4.0/1.0)
|   |   |   |   |   |   |   |   |   |   |   |   |   |   |   |   |   |   F > 256
|   |   |   |   |   |   |   |   |   |   |   |   |   |   |   |   |   |   |   OI1 <= 88.085202: x4 (4.0/2.0)
|   |   |   |   |   |   |   |   |   |   |   |   |   |   |   |   |   |   |   OI1 > 88.085202: x3 (3.0/1.0)
|   |   |   |   |   |   |   |   |   |   |   |   |   |   L2size_2 > 955904
|   |   |   |   |   |   |   |   |   |   |   |   |   |   |   F <= 256
|   |   |   |   |   |   |   |   |   |   |   |   |   |   |   |   L2size_1 <= 1611904
|   |   |   |   |   |   |   |   |   |   |   |   |   |   |   |   |   loop2 <= 1
|   |   |   |   |   |   |   |   |   |   |   |   |   |   |   |   |   |   OI1 <= 137.552239
|   |   |   |   |   |   |   |   |   |   |   |   |   |   |   |   |   |   |   X <= 17
|   |   |   |   |   |   |   |   |   |   |   |   |   |   |   |   |   |   |   |   OI1 <= 44.36319: x2 (8.0/1.0)
|   |   |   |   |   |   |   |   |   |   |   |   |   |   |   |   |   |   |   |   OI1 > 44.36319: x5 (2.0)
|   |   |   |   |   |   |   |   |   |   |   |   |   |   |   |   |   |   |   X > 17
|   |   |   |   |   |   |   |   |   |   |   |   |   |   |   |   |   |   |   |   Stride <= 1
|   |   |   |   |   |   |   |   |   |   |   |   |   |   |   |   |   |   |   |   |   L1size_1 <= 1118208
|   |   |   |   |   |   |   |   |   |   |   |   |   |   |   |   |   |   |   |   |   |   LAMBDA = True: x1 (2.0)
|   |   |   |   |   |   |   |   |   |   |   |   |   |   |   |   |   |   |   |   |   |   LAMBDA = False: x3 (3.0/1.0)
|   |   |   |   |   |   |   |   |   |   |   |   |   |   |   |   |   |   |   |   |   L1size_1 > 1118208: x2 (72.0/30.0)
|   |   |   |   |   |   |   |   |   |   |   |   |   |   |   |   |   |   |   |   Stride > 1
|   |   |   |   |   |   |   |   |   |   |   |   |   |   |   |   |   |   |   |   |   OI1 <= 41.666488: x2 (7.0/1.0)
|   |   |   |   |   |   |   |   |   |   |   |   |   |   |   |   |   |   |   |   |   OI1 > 41.666488: x5 (3.0/1.0)
|   |   |   |   |   |   |   |   |   |   |   |   |   |   |   |   |   |   OI1 > 137.552239
|   |   |   |   |   |   |   |   |   |   |   |   |   |   |   |   |   |   |   OI1 <= 164.874507: x5 (3.0)
|   |   |   |   |   |   |   |   |   |   |   |   |   |   |   |   |   |   |   OI1 > 164.874507: x4 (8.0/5.0)
|   |   |   |   |   |   |   |   |   |   |   |   |   |   |   |   |   loop2 > 1
|   |   |   |   |   |   |   |   |   |   |   |   |   |   |   |   |   |   C <= 128
|   |   |   |   |   |   |   |   |   |   |   |   |   |   |   |   |   |   |   OI2 <= 64.821247: x3 (2.0)
|   |   |   |   |   |   |   |   |   |   |   |   |   |   |   |   |   |   |   OI2 > 64.821247: x2 (2.0/1.0)
|   |   |   |   |   |   |   |   |   |   |   |   |   |   |   |   |   |   C > 128
|   |   |   |   |   |   |   |   |   |   |   |   |   |   |   |   |   |   |   L2size_2 <= 1096160: x5 (2.0)
|   |   |   |   |   |   |   |   |   |   |   |   |   |   |   |   |   |   |   L2size_2 > 1096160
|   |   |   |   |   |   |   |   |   |   |   |   |   |   |   |   |   |   |   |   L2size_1 <= 1170176
|   |   |   |   |   |   |   |   |   |   |   |   |   |   |   |   |   |   |   |   |   OI2 <= 121.419558: x6 (2.0)
|   |   |   |   |   |   |   |   |   |   |   |   |   |   |   |   |   |   |   |   |   OI2 > 121.419558: x7 (4.0/1.0)
|   |   |   |   |   |   |   |   |   |   |   |   |   |   |   |   |   |   |   |   L2size_1 > 1170176: x8 (5.0/1.0)
|   |   |   |   |   |   |   |   |   |   |   |   |   |   |   |   L2size_1 > 1611904
|   |   |   |   |   |   |   |   |   |   |   |   |   |   |   |   |   C <= 128
|   |   |   |   |   |   |   |   |   |   |   |   |   |   |   |   |   |   OI1 <= 30.168703: x3 (8.0/2.0)
|   |   |   |   |   |   |   |   |   |   |   |   |   |   |   |   |   |   OI1 > 30.168703
|   |   |   |   |   |   |   |   |   |   |   |   |   |   |   |   |   |   |   OI1 <= 69.324481: x2 (6.0/1.0)
|   |   |   |   |   |   |   |   |   |   |   |   |   |   |   |   |   |   |   OI1 > 69.324481: x1 (2.0/1.0)
|   |   |   |   |   |   |   |   |   |   |   |   |   |   |   |   |   C > 128
|   |   |   |   |   |   |   |   |   |   |   |   |   |   |   |   |   |   loop2 <= 1
|   |   |   |   |   |   |   |   |   |   |   |   |   |   |   |   |   |   |   L2size_1 <= 3881168
|   |   |   |   |   |   |   |   |   |   |   |   |   |   |   |   |   |   |   |   OI3 <= 44.391536
|   |   |   |   |   |   |   |   |   |   |   |   |   |   |   |   |   |   |   |   |   L2size_2 <= 3265024
|   |   |   |   |   |   |   |   |   |   |   |   |   |   |   |   |   |   |   |   |   |   L1size_1 <= 1645600: x1 (2.0)
|   |   |   |   |   |   |   |   |   |   |   |   |   |   |   |   |   |   |   |   |   |   L1size_1 > 1645600: x4 (8.0)
|   |   |   |   |   |   |   |   |   |   |   |   |   |   |   |   |   |   |   |   |   L2size_2 > 3265024: x1 (2.0/1.0)
|   |   |   |   |   |   |   |   |   |   |   |   |   |   |   |   |   |   |   |   OI3 > 44.391536
|   |   |   |   |   |   |   |   |   |   |   |   |   |   |   |   |   |   |   |   |   OI2 <= 65.710014: x7 (12.0/2.0)
|   |   |   |   |   |   |   |   |   |   |   |   |   |   |   |   |   |   |   |   |   OI2 > 65.710014: x4 (2.0)
|   |   |   |   |   |   |   |   |   |   |   |   |   |   |   |   |   |   |   L2size_1 > 3881168
|   |   |   |   |   |   |   |   |   |   |   |   |   |   |   |   |   |   |   |   L2size_2 <= 5997056: x8 (4.0)
|   |   |   |   |   |   |   |   |   |   |   |   |   |   |   |   |   |   |   |   L2size_2 > 5997056: x2 (8.0/4.0)
|   |   |   |   |   |   |   |   |   |   |   |   |   |   |   |   |   |   loop2 > 1
|   |   |   |   |   |   |   |   |   |   |   |   |   |   |   |   |   |   |   OI3 <= 22.131046
|   |   |   |   |   |   |   |   |   |   |   |   |   |   |   |   |   |   |   |   OI1 <= 24.99358: x4 (2.0/1.0)
|   |   |   |   |   |   |   |   |   |   |   |   |   |   |   |   |   |   |   |   OI1 > 24.99358
|   |   |   |   |   |   |   |   |   |   |   |   |   |   |   |   |   |   |   |   |   L2size_1 <= 6706976
|   |   |   |   |   |   |   |   |   |   |   |   |   |   |   |   |   |   |   |   |   |   OI1 <= 30.756615: x1 (4.0)
|   |   |   |   |   |   |   |   |   |   |   |   |   |   |   |   |   |   |   |   |   |   OI1 > 30.756615: x4 (2.0)
|   |   |   |   |   |   |   |   |   |   |   |   |   |   |   |   |   |   |   |   |   L2size_1 > 6706976: x1 (9.0/2.0)
|   |   |   |   |   |   |   |   |   |   |   |   |   |   |   |   |   |   |   OI3 > 22.131046
|   |   |   |   |   |   |   |   |   |   |   |   |   |   |   |   |   |   |   |   L1size_1 <= 1971456
|   |   |   |   |   |   |   |   |   |   |   |   |   |   |   |   |   |   |   |   |   L2size_1 <= 1747968
|   |   |   |   |   |   |   |   |   |   |   |   |   |   |   |   |   |   |   |   |   |   OI1 <= 115.721799: x7 (5.0/1.0)
|   |   |   |   |   |   |   |   |   |   |   |   |   |   |   |   |   |   |   |   |   |   OI1 > 115.721799: x6 (3.0/1.0)
|   |   |   |   |   |   |   |   |   |   |   |   |   |   |   |   |   |   |   |   |   L2size_1 > 1747968: x5 (5.0/1.0)
|   |   |   |   |   |   |   |   |   |   |   |   |   |   |   |   |   |   |   |   L1size_1 > 1971456
|   |   |   |   |   |   |   |   |   |   |   |   |   |   |   |   |   |   |   |   |   L2size_2 <= 1816768
|   |   |   |   |   |   |   |   |   |   |   |   |   |   |   |   |   |   |   |   |   |   L2size_1 <= 1720320: x4 (5.0/2.0)
|   |   |   |   |   |   |   |   |   |   |   |   |   |   |   |   |   |   |   |   |   |   L2size_1 > 1720320
|   |   |   |   |   |   |   |   |   |   |   |   |   |   |   |   |   |   |   |   |   |   |   LAMBDA = True: x3 (2.0/1.0)
|   |   |   |   |   |   |   |   |   |   |   |   |   |   |   |   |   |   |   |   |   |   |   LAMBDA = False: x1 (3.0)
|   |   |   |   |   |   |   |   |   |   |   |   |   |   |   |   |   |   |   |   |   L2size_2 > 1816768
|   |   |   |   |   |   |   |   |   |   |   |   |   |   |   |   |   |   |   |   |   |   LAMBDA = True
|   |   |   |   |   |   |   |   |   |   |   |   |   |   |   |   |   |   |   |   |   |   |   L2size_2 <= 2935016
|   |   |   |   |   |   |   |   |   |   |   |   |   |   |   |   |   |   |   |   |   |   |   |   loop2 <= 2: x5 (3.0/2.0)
|   |   |   |   |   |   |   |   |   |   |   |   |   |   |   |   |   |   |   |   |   |   |   |   loop2 > 2
|   |   |   |   |   |   |   |   |   |   |   |   |   |   |   |   |   |   |   |   |   |   |   |   |   OI1 <= 41.692214: x1 (2.0/1.0)
|   |   |   |   |   |   |   |   |   |   |   |   |   |   |   |   |   |   |   |   |   |   |   |   |   OI1 > 41.692214: x2 (2.0)
|   |   |   |   |   |   |   |   |   |   |   |   |   |   |   |   |   |   |   |   |   |   |   L2size_2 > 2935016
|   |   |   |   |   |   |   |   |   |   |   |   |   |   |   |   |   |   |   |   |   |   |   |   L1size_1 <= 6484480
|   |   |   |   |   |   |   |   |   |   |   |   |   |   |   |   |   |   |   |   |   |   |   |   |   L2size_2 <= 5863936: x3 (8.0)
|   |   |   |   |   |   |   |   |   |   |   |   |   |   |   |   |   |   |   |   |   |   |   |   |   L2size_2 > 5863936
|   |   |   |   |   |   |   |   |   |   |   |   |   |   |   |   |   |   |   |   |   |   |   |   |   |   OI1 <= 26.365587: x3 (4.0/1.0)
|   |   |   |   |   |   |   |   |   |   |   |   |   |   |   |   |   |   |   |   |   |   |   |   |   |   OI1 > 26.365587
|   |   |   |   |   |   |   |   |   |   |   |   |   |   |   |   |   |   |   |   |   |   |   |   |   |   |   OI1 <= 26.908831: x7 (3.0)
|   |   |   |   |   |   |   |   |   |   |   |   |   |   |   |   |   |   |   |   |   |   |   |   |   |   |   OI1 > 26.908831: x4 (2.0/1.0)
|   |   |   |   |   |   |   |   |   |   |   |   |   |   |   |   |   |   |   |   |   |   |   |   L1size_1 > 6484480
|   |   |   |   |   |   |   |   |   |   |   |   |   |   |   |   |   |   |   |   |   |   |   |   |   OI1 <= 23.043613
|   |   |   |   |   |   |   |   |   |   |   |   |   |   |   |   |   |   |   |   |   |   |   |   |   |   OI3 <= 22.723494: x8 (2.0)
|   |   |   |   |   |   |   |   |   |   |   |   |   |   |   |   |   |   |   |   |   |   |   |   |   |   OI3 > 22.723494: x7 (6.0/4.0)
|   |   |   |   |   |   |   |   |   |   |   |   |   |   |   |   |   |   |   |   |   |   |   |   |   OI1 > 23.043613
|   |   |   |   |   |   |   |   |   |   |   |   |   |   |   |   |   |   |   |   |   |   |   |   |   |   loop2 <= 2: x4 (4.0/2.0)
|   |   |   |   |   |   |   |   |   |   |   |   |   |   |   |   |   |   |   |   |   |   |   |   |   |   loop2 > 2: x5 (3.0/1.0)
|   |   |   |   |   |   |   |   |   |   |   |   |   |   |   |   |   |   |   |   |   |   LAMBDA = False
|   |   |   |   |   |   |   |   |   |   |   |   |   |   |   |   |   |   |   |   |   |   |   L1size_1 <= 3932160
|   |   |   |   |   |   |   |   |   |   |   |   |   |   |   |   |   |   |   |   |   |   |   |   loop2 <= 2: x7 (5.0/3.0)
|   |   |   |   |   |   |   |   |   |   |   |   |   |   |   |   |   |   |   |   |   |   |   |   loop2 > 2: x0 (3.0/1.0)
|   |   |   |   |   |   |   |   |   |   |   |   |   |   |   |   |   |   |   |   |   |   |   L1size_1 > 3932160
|   |   |   |   |   |   |   |   |   |   |   |   |   |   |   |   |   |   |   |   |   |   |   |   L2size_1 <= 6706976: x2 (7.0/3.0)
|   |   |   |   |   |   |   |   |   |   |   |   |   |   |   |   |   |   |   |   |   |   |   |   L2size_1 > 6706976: x1 (2.0/1.0)
|   |   |   |   |   |   |   |   |   |   |   |   |   |   |   F > 256
|   |   |   |   |   |   |   |   |   |   |   |   |   |   |   |   loop2 <= 14
|   |   |   |   |   |   |   |   |   |   |   |   |   |   |   |   |   F <= 512
|   |   |   |   |   |   |   |   |   |   |   |   |   |   |   |   |   |   OI1 <= 30.615735
|   |   |   |   |   |   |   |   |   |   |   |   |   |   |   |   |   |   |   L2size_1 <= 1585024: x1 (2.0)
|   |   |   |   |   |   |   |   |   |   |   |   |   |   |   |   |   |   |   L2size_1 > 1585024
|   |   |   |   |   |   |   |   |   |   |   |   |   |   |   |   |   |   |   |   OI1 <= 23.959627
|   |   |   |   |   |   |   |   |   |   |   |   |   |   |   |   |   |   |   |   |   OI1 <= 23.655075: x2 (2.0)
|   |   |   |   |   |   |   |   |   |   |   |   |   |   |   |   |   |   |   |   |   OI1 > 23.655075: x6 (2.0)
|   |   |   |   |   |   |   |   |   |   |   |   |   |   |   |   |   |   |   |   OI1 > 23.959627: x2 (7.0)
|   |   |   |   |   |   |   |   |   |   |   |   |   |   |   |   |   |   OI1 > 30.615735
|   |   |   |   |   |   |   |   |   |   |   |   |   |   |   |   |   |   |   L2size_1 <= 4341120
|   |   |   |   |   |   |   |   |   |   |   |   |   |   |   |   |   |   |   |   C <= 256
|   |   |   |   |   |   |   |   |   |   |   |   |   |   |   |   |   |   |   |   |   L1size_1 <= 9831168: x3 (4.0/1.0)
|   |   |   |   |   |   |   |   |   |   |   |   |   |   |   |   |   |   |   |   |   L1size_1 > 9831168: x6 (2.0)
|   |   |   |   |   |   |   |   |   |   |   |   |   |   |   |   |   |   |   |   C > 256
|   |   |   |   |   |   |   |   |   |   |   |   |   |   |   |   |   |   |   |   |   LAMBDA = True
|   |   |   |   |   |   |   |   |   |   |   |   |   |   |   |   |   |   |   |   |   |   OI1 <= 47.421947
|   |   |   |   |   |   |   |   |   |   |   |   |   |   |   |   |   |   |   |   |   |   |   L2size_1 <= 2371840: x3 (2.0)
|   |   |   |   |   |   |   |   |   |   |   |   |   |   |   |   |   |   |   |   |   |   |   L2size_1 > 2371840
|   |   |   |   |   |   |   |   |   |   |   |   |   |   |   |   |   |   |   |   |   |   |   |   loop2 <= 4
|   |   |   |   |   |   |   |   |   |   |   |   |   |   |   |   |   |   |   |   |   |   |   |   |   OI1 <= 47.060834: x6 (3.0/1.0)
|   |   |   |   |   |   |   |   |   |   |   |   |   |   |   |   |   |   |   |   |   |   |   |   |   OI1 > 47.060834: x2 (2.0)
|   |   |   |   |   |   |   |   |   |   |   |   |   |   |   |   |   |   |   |   |   |   |   |   loop2 > 4: x2 (3.0)
|   |   |   |   |   |   |   |   |   |   |   |   |   |   |   |   |   |   |   |   |   |   OI1 > 47.421947
|   |   |   |   |   |   |   |   |   |   |   |   |   |   |   |   |   |   |   |   |   |   |   L2size_1 <= 3298816
|   |   |   |   |   |   |   |   |   |   |   |   |   |   |   |   |   |   |   |   |   |   |   |   L2size_1 <= 1449760
|   |   |   |   |   |   |   |   |   |   |   |   |   |   |   |   |   |   |   |   |   |   |   |   |   OI2 <= 150.290041: x6 (4.0/1.0)
|   |   |   |   |   |   |   |   |   |   |   |   |   |   |   |   |   |   |   |   |   |   |   |   |   OI2 > 150.290041: x4 (3.0/1.0)
|   |   |   |   |   |   |   |   |   |   |   |   |   |   |   |   |   |   |   |   |   |   |   |   L2size_1 > 1449760
|   |   |   |   |   |   |   |   |   |   |   |   |   |   |   |   |   |   |   |   |   |   |   |   |   L1size_1 <= 3275776: x3 (6.0)
|   |   |   |   |   |   |   |   |   |   |   |   |   |   |   |   |   |   |   |   |   |   |   |   |   L1size_1 > 3275776: x4 (2.0)
|   |   |   |   |   |   |   |   |   |   |   |   |   |   |   |   |   |   |   |   |   |   |   L2size_1 > 3298816: x6 (2.0)
|   |   |   |   |   |   |   |   |   |   |   |   |   |   |   |   |   |   |   |   |   LAMBDA = False
|   |   |   |   |   |   |   |   |   |   |   |   |   |   |   |   |   |   |   |   |   |   OI2 <= 68.331228
|   |   |   |   |   |   |   |   |   |   |   |   |   |   |   |   |   |   |   |   |   |   |   L2size_1 <= 4293632
|   |   |   |   |   |   |   |   |   |   |   |   |   |   |   |   |   |   |   |   |   |   |   |   L2size_2 <= 2158272
|   |   |   |   |   |   |   |   |   |   |   |   |   |   |   |   |   |   |   |   |   |   |   |   |   OI1 <= 55.602238: x4 (3.0/1.0)
|   |   |   |   |   |   |   |   |   |   |   |   |   |   |   |   |   |   |   |   |   |   |   |   |   OI1 > 55.602238: x3 (2.0)
|   |   |   |   |   |   |   |   |   |   |   |   |   |   |   |   |   |   |   |   |   |   |   |   L2size_2 > 2158272: x6 (10.0/5.0)
|   |   |   |   |   |   |   |   |   |   |   |   |   |   |   |   |   |   |   |   |   |   |   L2size_1 > 4293632: x2 (3.0/1.0)
|   |   |   |   |   |   |   |   |   |   |   |   |   |   |   |   |   |   |   |   |   |   OI2 > 68.331228
|   |   |   |   |   |   |   |   |   |   |   |   |   |   |   |   |   |   |   |   |   |   |   OI1 <= 156.186507
|   |   |   |   |   |   |   |   |   |   |   |   |   |   |   |   |   |   |   |   |   |   |   |   loop2 <= 1: x2 (2.0)
|   |   |   |   |   |   |   |   |   |   |   |   |   |   |   |   |   |   |   |   |   |   |   |   loop2 > 1: x4 (18.0/6.0)
|   |   |   |   |   |   |   |   |   |   |   |   |   |   |   |   |   |   |   |   |   |   |   OI1 > 156.186507: x1 (2.0)
|   |   |   |   |   |   |   |   |   |   |   |   |   |   |   |   |   |   |   L2size_1 > 4341120
|   |   |   |   |   |   |   |   |   |   |   |   |   |   |   |   |   |   |   |   L1size_1 <= 9922560
|   |   |   |   |   |   |   |   |   |   |   |   |   |   |   |   |   |   |   |   |   L1size_1 <= 4396028: x3 (8.0/2.0)
|   |   |   |   |   |   |   |   |   |   |   |   |   |   |   |   |   |   |   |   |   L1size_1 > 4396028
|   |   |   |   |   |   |   |   |   |   |   |   |   |   |   |   |   |   |   |   |   |   L1size_1 <= 8991232
|   |   |   |   |   |   |   |   |   |   |   |   |   |   |   |   |   |   |   |   |   |   |   C <= 256
|   |   |   |   |   |   |   |   |   |   |   |   |   |   |   |   |   |   |   |   |   |   |   |   loop2 <= 1
|   |   |   |   |   |   |   |   |   |   |   |   |   |   |   |   |   |   |   |   |   |   |   |   |   OI1 <= 67.127578: x4 (3.0)
|   |   |   |   |   |   |   |   |   |   |   |   |   |   |   |   |   |   |   |   |   |   |   |   |   OI1 > 67.127578: x5 (7.0/2.0)
|   |   |   |   |   |   |   |   |   |   |   |   |   |   |   |   |   |   |   |   |   |   |   |   loop2 > 1
|   |   |   |   |   |   |   |   |   |   |   |   |   |   |   |   |   |   |   |   |   |   |   |   |   L1size_1 <= 5257896: x3 (2.0)
|   |   |   |   |   |   |   |   |   |   |   |   |   |   |   |   |   |   |   |   |   |   |   |   |   L1size_1 > 5257896
|   |   |   |   |   |   |   |   |   |   |   |   |   |   |   |   |   |   |   |   |   |   |   |   |   |   L1size_1 <= 5370368: x4 (3.0)
|   |   |   |   |   |   |   |   |   |   |   |   |   |   |   |   |   |   |   |   |   |   |   |   |   |   L1size_1 > 5370368
|   |   |   |   |   |   |   |   |   |   |   |   |   |   |   |   |   |   |   |   |   |   |   |   |   |   |   L1size_1 <= 5799936: x5 (4.0)
|   |   |   |   |   |   |   |   |   |   |   |   |   |   |   |   |   |   |   |   |   |   |   |   |   |   |   L1size_1 > 5799936: x4 (2.0)
|   |   |   |   |   |   |   |   |   |   |   |   |   |   |   |   |   |   |   |   |   |   |   C > 256: x5 (3.0/1.0)
|   |   |   |   |   |   |   |   |   |   |   |   |   |   |   |   |   |   |   |   |   |   L1size_1 > 8991232
|   |   |   |   |   |   |   |   |   |   |   |   |   |   |   |   |   |   |   |   |   |   |   L1size_1 <= 9831168: x3 (12.0/1.0)
|   |   |   |   |   |   |   |   |   |   |   |   |   |   |   |   |   |   |   |   |   |   |   L1size_1 > 9831168: x5 (4.0/1.0)
|   |   |   |   |   |   |   |   |   |   |   |   |   |   |   |   |   |   |   |   L1size_1 > 9922560
|   |   |   |   |   |   |   |   |   |   |   |   |   |   |   |   |   |   |   |   |   L2size_1 <= 8956416: x2 (4.0/1.0)
|   |   |   |   |   |   |   |   |   |   |   |   |   |   |   |   |   |   |   |   |   L2size_1 > 8956416: x4 (4.0)
|   |   |   |   |   |   |   |   |   |   |   |   |   |   |   |   |   F > 512: x2 (8.0/1.0)
|   |   |   |   |   |   |   |   |   |   |   |   |   |   |   |   loop2 > 14
|   |   |   |   |   |   |   |   |   |   |   |   |   |   |   |   |   F <= 512
|   |   |   |   |   |   |   |   |   |   |   |   |   |   |   |   |   |   L1size_1 <= 6865920: x2 (3.0/2.0)
|   |   |   |   |   |   |   |   |   |   |   |   |   |   |   |   |   |   L1size_1 > 6865920
|   |   |   |   |   |   |   |   |   |   |   |   |   |   |   |   |   |   |   L2size_2 <= 7895552: x0 (2.0)
|   |   |   |   |   |   |   |   |   |   |   |   |   |   |   |   |   |   |   L2size_2 > 7895552: x1 (2.0/1.0)
|   |   |   |   |   |   |   |   |   |   |   |   |   |   |   |   |   F > 512: x1 (5.0)
|   |   |   |   |   |   |   |   |   |   |   |   X > 34
|   |   |   |   |   |   |   |   |   |   |   |   |   L2size_2 <= 6086144
|   |   |   |   |   |   |   |   |   |   |   |   |   |   LAMBDA = True
|   |   |   |   |   |   |   |   |   |   |   |   |   |   |   loop2 <= 1: x7 (4.0/1.0)
|   |   |   |   |   |   |   |   |   |   |   |   |   |   |   loop2 > 1
|   |   |   |   |   |   |   |   |   |   |   |   |   |   |   |   OI1 <= 94.50206: x4 (2.0/1.0)
|   |   |   |   |   |   |   |   |   |   |   |   |   |   |   |   OI1 > 94.50206: x3 (3.0/1.0)
|   |   |   |   |   |   |   |   |   |   |   |   |   |   LAMBDA = False: x4 (15.0/2.0)
|   |   |   |   |   |   |   |   |   |   |   |   |   L2size_2 > 6086144
|   |   |   |   |   |   |   |   |   |   |   |   |   |   L1size_1 <= 11846144
|   |   |   |   |   |   |   |   |   |   |   |   |   |   |   L2size_1 <= 7533056: x4 (2.0)
|   |   |   |   |   |   |   |   |   |   |   |   |   |   |   L2size_1 > 7533056: x1 (13.0)
|   |   |   |   |   |   |   |   |   |   |   |   |   |   L1size_1 > 11846144: x2 (2.0/1.0)
|   |   |   |   |   |   |   |   L2size_2 > 10318976
|   |   |   |   |   |   |   |   |   KH <= 1: x7 (19.0/2.0)
|   |   |   |   |   |   |   |   |   KH > 1
|   |   |   |   |   |   |   |   |   |   LAMBDA = True
|   |   |   |   |   |   |   |   |   |   |   loop2 <= 1
|   |   |   |   |   |   |   |   |   |   |   |   L1size_1 <= 2800
|   |   |   |   |   |   |   |   |   |   |   |   |   F <= 512
|   |   |   |   |   |   |   |   |   |   |   |   |   |   OI1 <= 55.906718: x3 (3.0)
|   |   |   |   |   |   |   |   |   |   |   |   |   |   OI1 > 55.906718: x1 (3.0)
|   |   |   |   |   |   |   |   |   |   |   |   |   F > 512: x0 (4.0)
|   |   |   |   |   |   |   |   |   |   |   |   L1size_1 > 2800
|   |   |   |   |   |   |   |   |   |   |   |   |   F <= 512
|   |   |   |   |   |   |   |   |   |   |   |   |   |   L1size_1 <= 11611136: x1 (83.0/17.0)
|   |   |   |   |   |   |   |   |   |   |   |   |   |   L1size_1 > 11611136
|   |   |   |   |   |   |   |   |   |   |   |   |   |   |   L1size_1 <= 18234880
|   |   |   |   |   |   |   |   |   |   |   |   |   |   |   |   F <= 256: x2 (5.0)
|   |   |   |   |   |   |   |   |   |   |   |   |   |   |   |   F > 256
|   |   |   |   |   |   |   |   |   |   |   |   |   |   |   |   |   OI1 <= 28.721236: x3 (2.0)
|   |   |   |   |   |   |   |   |   |   |   |   |   |   |   |   |   OI1 > 28.721236: x2 (2.0/1.0)
|   |   |   |   |   |   |   |   |   |   |   |   |   |   |   L1size_1 > 18234880
|   |   |   |   |   |   |   |   |   |   |   |   |   |   |   |   L2size_2 <= 16124928: x1 (4.0/1.0)
|   |   |   |   |   |   |   |   |   |   |   |   |   |   |   |   L2size_2 > 16124928
|   |   |   |   |   |   |   |   |   |   |   |   |   |   |   |   |   L2size_1 <= 18315264: x2 (3.0)
|   |   |   |   |   |   |   |   |   |   |   |   |   |   |   |   |   L2size_1 > 18315264: x1 (2.0)
|   |   |   |   |   |   |   |   |   |   |   |   |   F > 512
|   |   |   |   |   |   |   |   |   |   |   |   |   |   L2size_2 <= 14531328: x1 (9.0/1.0)
|   |   |   |   |   |   |   |   |   |   |   |   |   |   L2size_2 > 14531328
|   |   |   |   |   |   |   |   |   |   |   |   |   |   |   OI1 <= 90.11292: x2 (21.0/2.0)
|   |   |   |   |   |   |   |   |   |   |   |   |   |   |   OI1 > 90.11292
|   |   |   |   |   |   |   |   |   |   |   |   |   |   |   |   OI1 <= 104.340111: x3 (7.0/2.0)
|   |   |   |   |   |   |   |   |   |   |   |   |   |   |   |   OI1 > 104.340111
|   |   |   |   |   |   |   |   |   |   |   |   |   |   |   |   |   OI1 <= 134.694393: x1 (2.0)
|   |   |   |   |   |   |   |   |   |   |   |   |   |   |   |   |   OI1 > 134.694393: x2 (5.0/1.0)
|   |   |   |   |   |   |   |   |   |   |   loop2 > 1
|   |   |   |   |   |   |   |   |   |   |   |   F <= 256
|   |   |   |   |   |   |   |   |   |   |   |   |   loop2 <= 2: x1 (19.0/3.0)
|   |   |   |   |   |   |   |   |   |   |   |   |   loop2 > 2: x0 (10.0/3.0)
|   |   |   |   |   |   |   |   |   |   |   |   F > 256
|   |   |   |   |   |   |   |   |   |   |   |   |   F <= 512
|   |   |   |   |   |   |   |   |   |   |   |   |   |   L1size_1 <= 2963
|   |   |   |   |   |   |   |   |   |   |   |   |   |   |   OI1 <= 55.906718
|   |   |   |   |   |   |   |   |   |   |   |   |   |   |   |   OI1 <= 43.75549: x3 (3.0)
|   |   |   |   |   |   |   |   |   |   |   |   |   |   |   |   OI1 > 43.75549: x2 (2.0)
|   |   |   |   |   |   |   |   |   |   |   |   |   |   |   OI1 > 55.906718: x1 (5.0)
|   |   |   |   |   |   |   |   |   |   |   |   |   |   L1size_1 > 2963
|   |   |   |   |   |   |   |   |   |   |   |   |   |   |   OI3 <= 70.77122
|   |   |   |   |   |   |   |   |   |   |   |   |   |   |   |   loop2 <= 8
|   |   |   |   |   |   |   |   |   |   |   |   |   |   |   |   |   OI3 <= 33.592473: x1 (3.0/1.0)
|   |   |   |   |   |   |   |   |   |   |   |   |   |   |   |   |   OI3 > 33.592473: x0 (55.0/22.0)
|   |   |   |   |   |   |   |   |   |   |   |   |   |   |   |   loop2 > 8
|   |   |   |   |   |   |   |   |   |   |   |   |   |   |   |   |   OI2 <= 20.663677: x0 (2.0)
|   |   |   |   |   |   |   |   |   |   |   |   |   |   |   |   |   OI2 > 20.663677: x1 (3.0)
|   |   |   |   |   |   |   |   |   |   |   |   |   |   |   OI3 > 70.77122
|   |   |   |   |   |   |   |   |   |   |   |   |   |   |   |   L1size_1 <= 5488: x3 (6.0/1.0)
|   |   |   |   |   |   |   |   |   |   |   |   |   |   |   |   L1size_1 > 5488: x0 (6.0)
|   |   |   |   |   |   |   |   |   |   |   |   |   F > 512: x1 (3.0)
|   |   |   |   |   |   |   |   |   |   LAMBDA = False
|   |   |   |   |   |   |   |   |   |   |   L2size_1 <= 20267008: x2 (19.0)
|   |   |   |   |   |   |   |   |   |   |   L2size_1 > 20267008
|   |   |   |   |   |   |   |   |   |   |   |   loop2 <= 8: x3 (3.0)
|   |   |   |   |   |   |   |   |   |   |   |   loop2 > 8: x2 (3.0)
|   |   |   |   |   |   |   OI2 > 180.471176
|   |   |   |   |   |   |   |   L2size_1 <= 3198992
|   |   |   |   |   |   |   |   |   loop2 <= 2
|   |   |   |   |   |   |   |   |   |   LAMBDA = True
|   |   |   |   |   |   |   |   |   |   |   OI1 <= 666.452428: x4 (5.0/1.0)
|   |   |   |   |   |   |   |   |   |   |   OI1 > 666.452428
|   |   |   |   |   |   |   |   |   |   |   |   loop2 <= 1
|   |   |   |   |   |   |   |   |   |   |   |   |   OI2 <= 620.284475: x5 (2.0)
|   |   |   |   |   |   |   |   |   |   |   |   |   OI2 > 620.284475: x6 (6.0)
|   |   |   |   |   |   |   |   |   |   |   |   loop2 > 1: x5 (2.0)
|   |   |   |   |   |   |   |   |   |   LAMBDA = False
|   |   |   |   |   |   |   |   |   |   |   OI1 <= 317.080921
|   |   |   |   |   |   |   |   |   |   |   |   L2size_2 <= 632320: x2 (11.0/4.0)
|   |   |   |   |   |   |   |   |   |   |   |   L2size_2 > 632320
|   |   |   |   |   |   |   |   |   |   |   |   |   OI1 <= 254.619727: x2 (2.0/1.0)
|   |   |   |   |   |   |   |   |   |   |   |   |   OI1 > 254.619727: x6 (5.0)
|   |   |   |   |   |   |   |   |   |   |   OI1 > 317.080921: x3 (7.0/3.0)
|   |   |   |   |   |   |   |   |   loop2 > 2
|   |   |   |   |   |   |   |   |   |   F <= 256
|   |   |   |   |   |   |   |   |   |   |   L2size_2 <= 166192
|   |   |   |   |   |   |   |   |   |   |   |   C <= 128
|   |   |   |   |   |   |   |   |   |   |   |   |   loop2 <= 4
|   |   |   |   |   |   |   |   |   |   |   |   |   |   L2size_1 <= 254784: x5 (8.0/2.0)
|   |   |   |   |   |   |   |   |   |   |   |   |   |   L2size_1 > 254784: x0 (7.0/4.0)
|   |   |   |   |   |   |   |   |   |   |   |   |   loop2 > 4
|   |   |   |   |   |   |   |   |   |   |   |   |   |   loop2 <= 8
|   |   |   |   |   |   |   |   |   |   |   |   |   |   |   L2size_1 <= 204112: x6 (10.0/3.0)
|   |   |   |   |   |   |   |   |   |   |   |   |   |   |   L2size_1 > 204112: x0 (5.0/2.0)
|   |   |   |   |   |   |   |   |   |   |   |   |   |   loop2 > 8
|   |   |   |   |   |   |   |   |   |   |   |   |   |   |   OI1 <= 353.140553: x6 (2.0)
|   |   |   |   |   |   |   |   |   |   |   |   |   |   |   OI1 > 353.140553
|   |   |   |   |   |   |   |   |   |   |   |   |   |   |   |   L1size_1 <= 217504: x6 (3.0/1.0)
|   |   |   |   |   |   |   |   |   |   |   |   |   |   |   |   L1size_1 > 217504: x7 (2.0)
|   |   |   |   |   |   |   |   |   |   |   |   C > 128
|   |   |   |   |   |   |   |   |   |   |   |   |   L2size_2 <= 28096
|   |   |   |   |   |   |   |   |   |   |   |   |   |   L2size_2 <= 26956: x5 (3.0)
|   |   |   |   |   |   |   |   |   |   |   |   |   |   L2size_2 > 26956: x7 (5.0/2.0)
|   |   |   |   |   |   |   |   |   |   |   |   |   L2size_2 > 28096
|   |   |   |   |   |   |   |   |   |   |   |   |   |   OI1 <= 225.225417: x4 (3.0/1.0)
|   |   |   |   |   |   |   |   |   |   |   |   |   |   OI1 > 225.225417: x5 (9.0/2.0)
|   |   |   |   |   |   |   |   |   |   |   L2size_2 > 166192
|   |   |   |   |   |   |   |   |   |   |   |   PeakPerf <= 255688704: x3 (3.0)
|   |   |   |   |   |   |   |   |   |   |   |   PeakPerf > 255688704
|   |   |   |   |   |   |   |   |   |   |   |   |   L1size_1 <= 749952
|   |   |   |   |   |   |   |   |   |   |   |   |   |   OI3 <= 222.436117: x6 (4.0/1.0)
|   |   |   |   |   |   |   |   |   |   |   |   |   |   OI3 > 222.436117: x7 (26.0/10.0)
|   |   |   |   |   |   |   |   |   |   |   |   |   L1size_1 > 749952
|   |   |   |   |   |   |   |   |   |   |   |   |   |   L2size_1 <= 708736
|   |   |   |   |   |   |   |   |   |   |   |   |   |   |   LAMBDA = True: x4 (12.0/5.0)
|   |   |   |   |   |   |   |   |   |   |   |   |   |   |   LAMBDA = False: x3 (3.0/1.0)
|   |   |   |   |   |   |   |   |   |   |   |   |   |   L2size_1 > 708736: x7 (6.0/2.0)
|   |   |   |   |   |   |   |   |   |   F > 256
|   |   |   |   |   |   |   |   |   |   |   OI2 <= 283.630454
|   |   |   |   |   |   |   |   |   |   |   |   X <= 7
|   |   |   |   |   |   |   |   |   |   |   |   |   OI1 <= 226.822481: x5 (10.0/2.0)
|   |   |   |   |   |   |   |   |   |   |   |   |   OI1 > 226.822481: x4 (3.0/1.0)
|   |   |   |   |   |   |   |   |   |   |   |   X > 7
|   |   |   |   |   |   |   |   |   |   |   |   |   C <= 256
|   |   |   |   |   |   |   |   |   |   |   |   |   |   L1size_1 <= 2106210: x5 (2.0)
|   |   |   |   |   |   |   |   |   |   |   |   |   |   L1size_1 > 2106210: x4 (3.0)
|   |   |   |   |   |   |   |   |   |   |   |   |   C > 256
|   |   |   |   |   |   |   |   |   |   |   |   |   |   Stride <= 1
|   |   |   |   |   |   |   |   |   |   |   |   |   |   |   LAMBDA = True
|   |   |   |   |   |   |   |   |   |   |   |   |   |   |   |   OI1 <= 286.589982: x6 (5.0)
|   |   |   |   |   |   |   |   |   |   |   |   |   |   |   |   OI1 > 286.589982: x4 (2.0)
|   |   |   |   |   |   |   |   |   |   |   |   |   |   |   LAMBDA = False
|   |   |   |   |   |   |   |   |   |   |   |   |   |   |   |   OI2 <= 220.702059: x6 (8.0/3.0)
|   |   |   |   |   |   |   |   |   |   |   |   |   |   |   |   OI2 > 220.702059
|   |   |   |   |   |   |   |   |   |   |   |   |   |   |   |   |   OI2 <= 222.887497: x4 (2.0)
|   |   |   |   |   |   |   |   |   |   |   |   |   |   |   |   |   OI2 > 222.887497: x3 (4.0/1.0)
|   |   |   |   |   |   |   |   |   |   |   |   |   |   Stride > 1: x4 (5.0/2.0)
|   |   |   |   |   |   |   |   |   |   |   OI2 > 283.630454
|   |   |   |   |   |   |   |   |   |   |   |   OI3 <= 298.652912: x2 (2.0)
|   |   |   |   |   |   |   |   |   |   |   |   OI3 > 298.652912
|   |   |   |   |   |   |   |   |   |   |   |   |   OI2 <= 341.87842: x5 (3.0/1.0)
|   |   |   |   |   |   |   |   |   |   |   |   |   OI2 > 341.87842: x6 (5.0/1.0)
|   |   |   |   |   |   |   |   L2size_1 > 3198992
|   |   |   |   |   |   |   |   |   L2size_1 <= 20212736
|   |   |   |   |   |   |   |   |   |   PeakPerf <= 472055808: x3 (2.0)
|   |   |   |   |   |   |   |   |   |   PeakPerf > 472055808
|   |   |   |   |   |   |   |   |   |   |   loop2 <= 1
|   |   |   |   |   |   |   |   |   |   |   |   OI1 <= 195.968104: x2 (2.0)
|   |   |   |   |   |   |   |   |   |   |   |   OI1 > 195.968104: x3 (5.0)
|   |   |   |   |   |   |   |   |   |   |   loop2 > 1: x2 (4.0)
|   |   |   |   |   |   |   |   |   L2size_1 > 20212736
|   |   |   |   |   |   |   |   |   |   loop2 <= 1: x1 (3.0/1.0)
|   |   |   |   |   |   |   |   |   |   loop2 > 1: x0 (3.0)
|   |   |   |   |   |   L1size_1 > 22317056
|   |   |   |   |   |   |   OI1 <= 22.277301
|   |   |   |   |   |   |   |   X <= 14
|   |   |   |   |   |   |   |   |   OI3 <= 10.003001: x2 (3.0/2.0)
|   |   |   |   |   |   |   |   |   OI3 > 10.003001
|   |   |   |   |   |   |   |   |   |   OI1 <= 10.124748: x6 (2.0)
|   |   |   |   |   |   |   |   |   |   OI1 > 10.124748: x5 (3.0/1.0)
|   |   |   |   |   |   |   |   X > 14: x2 (149.0/30.0)
|   |   |   |   |   |   |   OI1 > 22.277301
|   |   |   |   |   |   |   |   F <= 512: x4 (11.0/4.0)
|   |   |   |   |   |   |   |   F > 512
|   |   |   |   |   |   |   |   |   L1size_1 <= 22798336
|   |   |   |   |   |   |   |   |   |   loop2 <= 8
|   |   |   |   |   |   |   |   |   |   |   OI1 <= 25.610163: x2 (2.0)
|   |   |   |   |   |   |   |   |   |   |   OI1 > 25.610163: x3 (2.0)
|   |   |   |   |   |   |   |   |   |   loop2 > 8: x1 (5.0)
|   |   |   |   |   |   |   |   |   L1size_1 > 22798336: x0 (2.0)
|   |   |   |   |   L1size_1 > 23326720
|   |   |   |   |   |   OI1 <= 3.194758
|   |   |   |   |   |   |   L2size_2 <= 117536: x0 (23.0/2.0)
|   |   |   |   |   |   |   L2size_2 > 117536
|   |   |   |   |   |   |   |   L2size_1 <= 427392
|   |   |   |   |   |   |   |   |   L2size_1 <= 117984: x0 (3.0/1.0)
|   |   |   |   |   |   |   |   |   L2size_1 > 117984
|   |   |   |   |   |   |   |   |   |   OI3 <= 3.185935: x5 (4.0)
|   |   |   |   |   |   |   |   |   |   OI3 > 3.185935
|   |   |   |   |   |   |   |   |   |   |   L2size_2 <= 224192: x7 (13.0)
|   |   |   |   |   |   |   |   |   |   |   L2size_2 > 224192
|   |   |   |   |   |   |   |   |   |   |   |   L2size_1 <= 265088: x6 (5.0)
|   |   |   |   |   |   |   |   |   |   |   |   L2size_1 > 265088
|   |   |   |   |   |   |   |   |   |   |   |   |   loop2 <= 17: x7 (3.0/1.0)
|   |   |   |   |   |   |   |   |   |   |   |   |   loop2 > 17
|   |   |   |   |   |   |   |   |   |   |   |   |   |   L2size_1 <= 277968: x7 (2.0)
|   |   |   |   |   |   |   |   |   |   |   |   |   |   L2size_1 > 277968: x5 (4.0)
|   |   |   |   |   |   |   |   L2size_1 > 427392
|   |   |   |   |   |   |   |   |   L2size_1 <= 2594024
|   |   |   |   |   |   |   |   |   |   OI3 <= 3.176813
|   |   |   |   |   |   |   |   |   |   |   OI2 <= 3.172305: x1 (5.0)
|   |   |   |   |   |   |   |   |   |   |   OI2 > 3.172305: x2 (4.0)
|   |   |   |   |   |   |   |   |   |   OI3 > 3.176813: x4 (6.0/1.0)
|   |   |   |   |   |   |   |   |   L2size_1 > 2594024
|   |   |   |   |   |   |   |   |   |   L2size_1 <= 4197120: x0 (6.0)
|   |   |   |   |   |   |   |   |   |   L2size_1 > 4197120: x7 (25.0/6.0)
|   |   |   |   |   |   OI1 > 3.194758
|   |   |   |   |   |   |   loop2 <= 1
|   |   |   |   |   |   |   |   LAMBDA = True
|   |   |   |   |   |   |   |   |   F <= 256
|   |   |   |   |   |   |   |   |   |   L2size_1 <= 30289920
|   |   |   |   |   |   |   |   |   |   |   L1size_1 <= 25841664: x1 (6.0)
|   |   |   |   |   |   |   |   |   |   |   L1size_1 > 25841664: x2 (21.0/2.0)
|   |   |   |   |   |   |   |   |   |   L2size_1 > 30289920
|   |   |   |   |   |   |   |   |   |   |   L2size_1 <= 31424000: x7 (2.0)
|   |   |   |   |   |   |   |   |   |   |   L2size_1 > 31424000: x1 (22.0)
|   |   |   |   |   |   |   |   |   F > 256
|   |   |   |   |   |   |   |   |   |   OI2 <= 14.877957: x3 (10.0/1.0)
|   |   |   |   |   |   |   |   |   |   OI2 > 14.877957
|   |   |   |   |   |   |   |   |   |   |   L1size_1 <= 32169984: x1 (12.0/2.0)
|   |   |   |   |   |   |   |   |   |   |   L1size_1 > 32169984: x2 (2.0)
|   |   |   |   |   |   |   |   LAMBDA = False: x3 (5.0/2.0)
|   |   |   |   |   |   |   loop2 > 1
|   |   |   |   |   |   |   |   OI2 <= 10.477283
|   |   |   |   |   |   |   |   |   X <= 34
|   |   |   |   |   |   |   |   |   |   L1size_1 <= 81765836
|   |   |   |   |   |   |   |   |   |   |   OI3 <= 8.233697: x1 (128.0/12.0)
|   |   |   |   |   |   |   |   |   |   |   OI3 > 8.233697
|   |   |   |   |   |   |   |   |   |   |   |   F <= 512
|   |   |   |   |   |   |   |   |   |   |   |   |   OI2 <= 8.94208: x1 (17.0/4.0)
|   |   |   |   |   |   |   |   |   |   |   |   |   OI2 > 8.94208: x3 (5.0/1.0)
|   |   |   |   |   |   |   |   |   |   |   |   F > 512: x1 (11.0)
|   |   |   |   |   |   |   |   |   |   L1size_1 > 81765836
|   |   |   |   |   |   |   |   |   |   |   OI3 <= 7.413133
|   |   |   |   |   |   |   |   |   |   |   |   OI1 <= 6.920321
|   |   |   |   |   |   |   |   |   |   |   |   |   OI1 <= 6.574732: x3 (3.0)
|   |   |   |   |   |   |   |   |   |   |   |   |   OI1 > 6.574732: x0 (2.0)
|   |   |   |   |   |   |   |   |   |   |   |   OI1 > 6.920321: x1 (5.0/1.0)
|   |   |   |   |   |   |   |   |   |   |   OI3 > 7.413133
|   |   |   |   |   |   |   |   |   |   |   |   OI2 <= 7.494548: x5 (5.0)
|   |   |   |   |   |   |   |   |   |   |   |   OI2 > 7.494548: x6 (5.0)
|   |   |   |   |   |   |   |   |   X > 34
|   |   |   |   |   |   |   |   |   |   OI1 <= 9.801024: x2 (13.0/2.0)
|   |   |   |   |   |   |   |   |   |   OI1 > 9.801024: x0 (2.0/1.0)
|   |   |   |   |   |   |   |   OI2 > 10.477283
|   |   |   |   |   |   |   |   |   loop2 <= 2
|   |   |   |   |   |   |   |   |   |   F <= 256
|   |   |   |   |   |   |   |   |   |   |   LAMBDA = True: x1 (46.0/2.0)
|   |   |   |   |   |   |   |   |   |   |   LAMBDA = False: x4 (3.0/1.0)
|   |   |   |   |   |   |   |   |   |   F > 256
|   |   |   |   |   |   |   |   |   |   |   OI2 <= 16.790474: x3 (2.0)
|   |   |   |   |   |   |   |   |   |   |   OI2 > 16.790474
|   |   |   |   |   |   |   |   |   |   |   |   L2size_2 <= 50432: x0 (2.0)
|   |   |   |   |   |   |   |   |   |   |   |   L2size_2 > 50432: x1 (7.0/3.0)
|   |   |   |   |   |   |   |   |   loop2 > 2
|   |   |   |   |   |   |   |   |   |   F <= 512
|   |   |   |   |   |   |   |   |   |   |   F <= 256: x0 (79.0/6.0)
|   |   |   |   |   |   |   |   |   |   |   F > 256
|   |   |   |   |   |   |   |   |   |   |   |   L2size_2 <= 3319296
|   |   |   |   |   |   |   |   |   |   |   |   |   OI1 <= 17.504274: x4 (3.0/1.0)
|   |   |   |   |   |   |   |   |   |   |   |   |   OI1 > 17.504274
|   |   |   |   |   |   |   |   |   |   |   |   |   |   L2size_1 <= 1237636: x6 (3.0)
|   |   |   |   |   |   |   |   |   |   |   |   |   |   L2size_1 > 1237636: x5 (2.0)
|   |   |   |   |   |   |   |   |   |   |   |   L2size_2 > 3319296
|   |   |   |   |   |   |   |   |   |   |   |   |   L2size_1 <= 31116288
|   |   |   |   |   |   |   |   |   |   |   |   |   |   L1size_1 <= 38371328
|   |   |   |   |   |   |   |   |   |   |   |   |   |   |   OI1 <= 17.320661
|   |   |   |   |   |   |   |   |   |   |   |   |   |   |   |   OI3 <= 14.868126: x0 (5.0)
|   |   |   |   |   |   |   |   |   |   |   |   |   |   |   |   OI3 > 14.868126: x1 (3.0/1.0)
|   |   |   |   |   |   |   |   |   |   |   |   |   |   |   OI1 > 17.320661: x2 (3.0/1.0)
|   |   |   |   |   |   |   |   |   |   |   |   |   |   L1size_1 > 38371328: x2 (2.0/1.0)
|   |   |   |   |   |   |   |   |   |   |   |   |   L2size_1 > 31116288: x3 (2.0)
|   |   |   |   |   |   |   |   |   |   F > 512
|   |   |   |   |   |   |   |   |   |   |   L1size_1 <= 37675008: x0 (14.0)
|   |   |   |   |   |   |   |   |   |   |   L1size_1 > 37675008: x1 (35.0)
|   |   |   |   C > 512
|   |   |   |   |   F <= 512
|   |   |   |   |   |   L2size_2 <= 1305600
|   |   |   |   |   |   |   L2size_1 <= 912768
|   |   |   |   |   |   |   |   L2size_2 <= 379968
|   |   |   |   |   |   |   |   |   L2size_1 <= 305920: x6 (3.0)
|   |   |   |   |   |   |   |   |   L2size_1 > 305920: x5 (2.0)
|   |   |   |   |   |   |   |   L2size_2 > 379968: x4 (3.0/1.0)
|   |   |   |   |   |   |   L2size_1 > 912768
|   |   |   |   |   |   |   |   OI2 <= 37.539715: x6 (2.0)
|   |   |   |   |   |   |   |   OI2 > 37.539715: x3 (3.0/1.0)
|   |   |   |   |   |   L2size_2 > 1305600
|   |   |   |   |   |   |   OI1 <= 20.893608: x3 (3.0/1.0)
|   |   |   |   |   |   |   OI1 > 20.893608: x1 (3.0/1.0)
|   |   |   |   |   F > 512
|   |   |   |   |   |   L1size_1 <= 1886976: x1 (343.0/194.0)
|   |   |   |   |   |   L1size_1 > 1886976: x0 (178.0/78.0)
|   |   L1size_1 > 90464256
|   |   |   F <= 128
|   |   |   |   F <= 64
|   |   |   |   |   OI2 <= 3.026641
|   |   |   |   |   |   OI2 <= 3.021814: x6 (3.0/1.0)
|   |   |   |   |   |   OI2 > 3.021814
|   |   |   |   |   |   |   OI3 <= 3.109752: x7 (15.0)
|   |   |   |   |   |   |   OI3 > 3.109752: x6 (2.0)
|   |   |   |   |   OI2 > 3.026641: x6 (27.0)
|   |   |   |   F > 64
|   |   |   |   |   L2size_1 <= 24289280: x7 (55.0)
|   |   |   |   |   L2size_1 > 24289280
|   |   |   |   |   |   loop2 <= 34
|   |   |   |   |   |   |   loop2 <= 17: x8 (8.0/2.0)
|   |   |   |   |   |   |   loop2 > 17: x7 (3.0/1.0)
|   |   |   |   |   |   loop2 > 34: x7 (13.0)
|   |   |   F > 128: x0 (330.0/35.0)
|   loop1 > 1
|   |   OI3 <= 17.47819
|   |   |   L2size_2 <= 2927104
|   |   |   |   KH <= 3
|   |   |   |   |   OI3 <= 6.573185
|   |   |   |   |   |   L1size_1 <= 27113472
|   |   |   |   |   |   |   OI2 <= 3.957271
|   |   |   |   |   |   |   |   L1size_1 <= 14487552: x0 (22.0)
|   |   |   |   |   |   |   |   L1size_1 > 14487552
|   |   |   |   |   |   |   |   |   loop2 <= 7: x0 (3.0/1.0)
|   |   |   |   |   |   |   |   |   loop2 > 7: x1 (19.0)
|   |   |   |   |   |   |   OI2 > 3.957271
|   |   |   |   |   |   |   |   L2size_2 <= 2459200
|   |   |   |   |   |   |   |   |   L1size_1 <= 16293888
|   |   |   |   |   |   |   |   |   |   L2size_1 <= 13325760
|   |   |   |   |   |   |   |   |   |   |   loop2 <= 8
|   |   |   |   |   |   |   |   |   |   |   |   LAMBDA = True
|   |   |   |   |   |   |   |   |   |   |   |   |   OI2 <= 3.973637: x2 (3.0)
|   |   |   |   |   |   |   |   |   |   |   |   |   OI2 > 3.973637: x1 (10.0)
|   |   |   |   |   |   |   |   |   |   |   |   LAMBDA = False: x1 (13.0)
|   |   |   |   |   |   |   |   |   |   |   loop2 > 8
|   |   |   |   |   |   |   |   |   |   |   |   F <= 32
|   |   |   |   |   |   |   |   |   |   |   |   |   loop2 <= 17: x2 (13.0/1.0)
|   |   |   |   |   |   |   |   |   |   |   |   |   loop2 > 17
|   |   |   |   |   |   |   |   |   |   |   |   |   |   L2size_2 <= 946944: x2 (10.0)
|   |   |   |   |   |   |   |   |   |   |   |   |   |   L2size_2 > 946944
|   |   |   |   |   |   |   |   |   |   |   |   |   |   |   OI2 <= 6.043238: x2 (9.0)
|   |   |   |   |   |   |   |   |   |   |   |   |   |   |   OI2 > 6.043238
|   |   |   |   |   |   |   |   |   |   |   |   |   |   |   |   OI1 <= 9.084931
|   |   |   |   |   |   |   |   |   |   |   |   |   |   |   |   |   LAMBDA = True
|   |   |   |   |   |   |   |   |   |   |   |   |   |   |   |   |   |   OI3 <= 6.052714
|   |   |   |   |   |   |   |   |   |   |   |   |   |   |   |   |   |   |   L2size_1 <= 1017632: x2 (3.0)
|   |   |   |   |   |   |   |   |   |   |   |   |   |   |   |   |   |   |   L2size_1 > 1017632
|   |   |   |   |   |   |   |   |   |   |   |   |   |   |   |   |   |   |   |   OI1 <= 6.054947
|   |   |   |   |   |   |   |   |   |   |   |   |   |   |   |   |   |   |   |   |   L2size_2 <= 1020746: x2 (3.0)
|   |   |   |   |   |   |   |   |   |   |   |   |   |   |   |   |   |   |   |   |   L2size_2 > 1020746: x1 (2.0)
|   |   |   |   |   |   |   |   |   |   |   |   |   |   |   |   |   |   |   |   OI1 > 6.054947: x1 (9.0)
|   |   |   |   |   |   |   |   |   |   |   |   |   |   |   |   |   |   OI3 > 6.052714: x1 (22.0/1.0)
|   |   |   |   |   |   |   |   |   |   |   |   |   |   |   |   |   LAMBDA = False
|   |   |   |   |   |   |   |   |   |   |   |   |   |   |   |   |   |   L2size_1 <= 1032448: x2 (4.0/1.0)
|   |   |   |   |   |   |   |   |   |   |   |   |   |   |   |   |   |   L2size_1 > 1032448: x1 (5.0)
|   |   |   |   |   |   |   |   |   |   |   |   |   |   |   |   OI1 > 9.084931
|   |   |   |   |   |   |   |   |   |   |   |   |   |   |   |   |   L2size_2 <= 1489936
|   |   |   |   |   |   |   |   |   |   |   |   |   |   |   |   |   |   OI1 <= 9.088507: x1 (5.0)
|   |   |   |   |   |   |   |   |   |   |   |   |   |   |   |   |   |   OI1 > 9.088507: x2 (2.0)
|   |   |   |   |   |   |   |   |   |   |   |   |   |   |   |   |   L2size_2 > 1489936: x2 (11.0/1.0)
|   |   |   |   |   |   |   |   |   |   |   |   F > 32
|   |   |   |   |   |   |   |   |   |   |   |   |   LAMBDA = True
|   |   |   |   |   |   |   |   |   |   |   |   |   |   L2size_1 <= 71392
|   |   |   |   |   |   |   |   |   |   |   |   |   |   |   OI2 <= 3.967284: x1 (3.0)
|   |   |   |   |   |   |   |   |   |   |   |   |   |   |   OI2 > 3.967284: x2 (25.0/2.0)
|   |   |   |   |   |   |   |   |   |   |   |   |   |   L2size_1 > 71392
|   |   |   |   |   |   |   |   |   |   |   |   |   |   |   loop2 <= 17
|   |   |   |   |   |   |   |   |   |   |   |   |   |   |   |   OI3 <= 3.96582: x1 (3.0)
|   |   |   |   |   |   |   |   |   |   |   |   |   |   |   |   OI3 > 3.96582
|   |   |   |   |   |   |   |   |   |   |   |   |   |   |   |   |   F <= 64: x2 (5.0)
|   |   |   |   |   |   |   |   |   |   |   |   |   |   |   |   |   F > 64
|   |   |   |   |   |   |   |   |   |   |   |   |   |   |   |   |   |   L1size_1 <= 14496768: x1 (2.0)
